#ifndef WEIGHTS_H
#define WEIGHTS_H

// Dữ liệu trọng số cho mạng 1D CNN
// Layer: conv1d_1
const float conv1d_1_w[40] = {-0.13572676, 0.49947846, 0.26311463, -0.015153693, -0.27626765, 0.3112906, 0.4630075, -0.19971548, -0.37961477, -0.14266522, -0.4065344, 0.47922608, 0.1182826, 0.3373427, 0.1141202, -0.1961715, -0.4349913, -0.22133413, -0.168085, 0.000431041, 0.019461611, 0.4167996, 0.074722484, -0.14654635, 0.07286281, -0.022375029, 0.24663639, 0.40333363, 0.4608155, 0.047978967, 0.4011511, 0.042126507, -0.1409547, -0.22880326, 0.18106242, -0.07366603, 0.07751899, 0.28467017, 0.022900287, 0.39709368};
const float conv1d_1_b[8] = {-0.13127902, 0.12408514, 0.016885111, 0.15907097, 0.22665447, 0.17468433, -0.0037997563, 0.19836538};

// Layer: conv1d_2
const float conv1d_2_w[384] = {0.26699933, 0.097045474, -0.30058855, -0.22949898, -0.022191545, -0.26399514, -0.23769246, 0.2577085, 0.1513471, 0.01635019, 0.091208965, 0.26234987, -0.06420146, 0.0065736086, 0.020079385, 0.062321503, 0.20882285, 0.15542032, 0.18871197, -0.071292125, -0.17438482, 0.49579176, -0.25506255, -0.29614025, -0.24489087, -0.22198202, -0.14786819, -0.08310353, -0.46940276, -0.31177106, 0.048090126, -0.12474533, -0.25909278, 0.0113056125, -0.11750025, 0.31932703, -0.365541, 0.002205561, 0.05817147, 0.2270712, 0.24997984, 0.32815695, 0.28807485, -0.18358594, -0.041166145, 0.023790887, -0.31382126, -0.04850998, -0.10324097, 0.19685586, 0.3468495, -0.30626756, 0.3066156, -0.006167654, 0.086473495, -0.16365753, 0.18816598, -0.023172379, -0.12991053, -0.22226937, -0.3530843, 0.0053376174, 0.31641456, 0.15250236, -0.3897581, -0.20892985, 0.24039595, 0.022463778, -0.13077356, -0.22380601, 0.36712235, 0.17353883, -0.047775824, -0.049032062, -0.37186122, -0.56974304, 0.08028924, 0.2848263, -0.12673545, 0.28460664, -0.06269515, 0.34707692, 0.25643617, -0.31806356, 0.26693344, 0.25288346, -0.03590652, -0.09035991, -0.24473833, 0.22928962, 0.09509794, 0.22512436, 0.19101815, -0.07869262, -0.061861135, 0.30470008, -0.15610686, 0.32307628, -0.11912719, -0.15111938, -0.17486526, 0.35948655, 0.15235011, 0.13709736, -0.03128417, 0.18054041, -0.09132103, 0.20340925, -0.30981603, 0.116977885, 0.06342449, 0.22782038, 0.14752792, -0.20434281, -0.40915626, -0.13304651, -0.19789346, -0.32499972, 0.20713583, 0.4670163, 0.45912898, -0.2291281, 0.28926796, 0.18055785, 0.5105109, 0.045132276, 0.17953973, 0.07767603, 0.16057399, -0.0030463568, 0.28248942, -0.22896472, -0.2923893, 0.06385438, -0.09812655, -0.007208907, -0.092779964, 0.12716685, 0.12180049, 0.22782591, 0.33866137, 0.05700388, -0.17286772, -0.13575587, -0.28662705, 0.12820412, 0.48130712, 0.35647553, 0.45373836, 0.41961935, 0.21036783, -0.23253939, -0.3203829, -0.2772883, -0.0847183, -0.26510543, -0.29142052, 0.11983825, 0.0670424, 0.20911309, -0.12520008, -0.0676631, 0.042680115, 0.14554814, 0.033633254, -0.059264626, -0.15670256, -0.010273774, -0.11304409, 0.044820722, 0.35225934, -0.34058172, 0.14814419, -0.24554247, 0.2613382, -0.21229814, -0.034213774, -0.28873584, -0.1287193, 0.19425179, -0.06887681, -0.1167982, -0.023360139, 0.18474604, -0.27374896, 0.046449173, 0.12587585, -0.22805229, 0.04797657, 0.1219904, -0.21448486, 0.13943684, 0.06678854, -0.18641363, 0.25374356, -0.03511704, -0.27824256, 0.1187205, 0.1278908, -0.12723249, 0.17378505, -0.6272098, -0.0900327, -0.33515817, 0.051551826, 0.0519001, -0.2899563, 0.035341296, 0.112272955, -0.27025062, -0.16396302, 0.0949068, 0.10063903, 0.050423134, 0.08561249, -0.1373208, 0.030812666, -0.091089755, 0.019144181, -0.020077491, 0.18618289, 0.12796815, 0.043452676, -0.16583306, 0.02840251, -0.11019453, 0.16806255, -0.27765763, 0.20255886, -0.18085384, -0.11871825, 0.05283543, -0.17479248, 0.13591762, -0.12640539, -0.344441, -0.2000649, 0.16759045, -0.1651506, 0.06366976, 0.33534864, 0.3529638, -0.48026812, 0.24757214, -0.3569169, -0.50778604, -0.033102307, -0.13308547, 0.4987663, 0.35292912, 0.14945829, 0.2769643, 0.25771654, 0.006727217, 0.23435256, -0.11350368, -0.39325482, -0.24452057, 0.038415436, 0.32533273, 0.2093396, 0.17464574, 0.15476632, -0.19467288, -0.24450979, -0.010424871, -0.29403847, -0.30580333, -0.20756592, 0.006873865, 0.17060125, -0.043645047, -0.11050064, 0.1302237, 0.10929866, 0.20271431, 0.40850776, 0.17628033, 0.46450788, -0.0016126826, -0.08302356, 0.119156815, 0.19636568, -0.3559505, -0.38685602, 0.4899291, -0.4230528, 0.17555726, 0.2902389, -0.031087065, -0.30848134, -0.11174309, -0.30970377, -0.28345096, 0.2394655, 0.21533756, 0.21706185, -0.033435088, -0.40056494, -0.20416762, 0.13273138, 0.14304999, 0.3624751, 0.248696, -0.26887405, 0.08851458, -0.31294784, 0.36545235, -0.3503177, -0.12929736, 0.2587222, 0.20323919, 0.197474, -0.4071896, 0.16797411, -0.027237628, -0.0125583, 0.18635379, -0.20740645, -0.114715174, -0.16265994, -0.03330153, -0.3676309, -0.17919593, -0.33884245, -0.15765612, -0.0112387035, -0.07289687, 0.20933515, -0.39839885, 0.1449958, 0.20045903, 0.45040333, 0.07196114, 0.0924046, -0.15488183, -0.080490895, 0.16256656, 0.20113114, 0.31676188, -0.051292296, -0.047421377, -0.11866559, 0.052082356, 0.048280116, -0.17703652, 0.037516683, -0.20260887, 0.11969782, 0.040028688, -0.0019979388, -0.20747307, -0.021701306, -0.2659171, -0.26446766, 0.039056692, 0.03516893, -0.09576111, 0.27707314, 0.09143405, 0.07348203, -0.33287463, 0.077476166, -0.44519204, -0.07610079, 0.045122635, 0.17380774, -0.19772002, -0.13153619, 0.2011344, 0.19133087, 0.06573684, -0.09577276, -0.15333958, -0.7510072, -0.15301283, 0.17914426, 0.1567665, -0.035946075, 0.10129224, -0.26615113, -0.20213284, 0.13196215, -0.3456264};
const float conv1d_2_b[16] = {0.0028140321, 0.013853467, 0.0654249, 0.09487381, 0.16554178, 0.12625735, 0.028919784, 0.056138895, 0.18376645, -0.20203389, -0.047501013, 0.14806098, 0.06778204, -0.09711565, 0.012475177, 0.10680462};

// Layer: dense_1
const float dense_1_w[23040] = {0.021690268, 0.06861046, -0.040777996, 0.0024051126, 0.089601696, 0.010173802, -0.011640196, 0.033755884, -0.03263029, 0.0959645, 0.030281674, -0.077843525, 0.013393656, -0.15837638, -0.036295976, -0.13694786, 0.052452583, -0.014096092, 0.02274636, -0.07591338, -0.0702841, -0.022948865, -0.103546776, -0.08921794, 0.0845384, 0.20001763, 0.07483347, 0.0772961, 0.11537175, 0.0018680079, -0.10585393, 0.07805837, 0.21121638, 0.19629495, -0.037137922, -0.02284057, 0.24669436, -0.003963201, 0.11980935, -0.07813064, -0.20795143, 0.08454495, 0.10076071, -0.17110774, 0.09789964, -0.30135185, -0.026959743, -0.12390552, 0.060958423, 0.0808782, -0.02619727, -0.0036817414, 0.07641766, 0.118737064, -0.3245587, -0.40383285, 0.20593792, 0.29154354, 0.043507725, 0.11399289, 0.516319, -0.059237715, -0.103671126, 0.0077065257, 0.004869619, -0.017757958, 0.056603067, -0.17889334, 0.09707384, 0.054835044, 0.073118925, -0.043443687, 0.03712012, -0.024063027, 0.037102897, -0.16513015, 0.08012622, -0.040615484, 0.03220233, -0.07080977, 0.007514745, -0.060970977, -0.08600209, -0.07395273, -0.0077396613, 0.06929966, -0.1758486, -0.15674701, 0.024909845, 0.13425677, 0.12473553, -0.012676226, 0.026590291, -0.0075191, 0.0406123, 0.008141672, -0.060129333, -0.06170648, 0.004254799, -0.12294376, -0.09157456, -0.032277253, 0.0030032783, 0.057907846, -0.0013932169, -0.06675441, 0.0608254, -0.15658002, -0.033159528, -0.110026225, 0.075673126, -0.10117471, -0.041359965, -0.0912786, 0.03623203, -0.060228437, -0.011102134, 0.05667282, 0.008676324, -0.15274777, -0.04842944, 0.0085376715, -0.036447182, 0.029837064, -0.10559069, -0.04222457, 0.028772954, -0.04436994, 0.08422327, -0.0033780027, 0.030377217, -0.13807681, 0.04238353, -0.005808556, -0.027800525, -0.062095966, 0.028539151, 0.07368789, -0.019773202, -0.18118985, 0.0009457553, -0.091322005, 0.00019591115, -0.10429495, -0.008607099, 0.019750703, 0.008642438, 0.0025690796, 0.07323323, 0.073497176, -0.11273268, -0.12473377, 0.16820632, 0.09159648, 0.080026105, 0.052808896, 0.16707024, -0.011466843, 0.018701795, 0.17481068, -0.0005858728, -0.037360672, 0.0748415, 0.0071508, 0.048435193, -0.123908795, 0.021715272, 0.039432105, 0.04354332, 0.13808857, 0.04013081, -0.20545018, 0.20024922, -0.05654281, 0.025891075, -0.026104772, -0.046727758, -0.07161307, -0.0038997754, 0.02687538, -0.114237785, -0.011957876, -0.1474783, -0.09163335, 0.23362967, 0.1224011, -0.0011159277, -0.01643769, 0.19623786, -0.07774287, 0.024154628, 0.052269243, -0.066999644, -0.119431905, 0.021385139, -0.15989995, -0.13573065, 0.026325772, -0.04047988, -0.019768415, -0.031963617, 0.077142715, 0.06813312, -0.024143461, -0.07696268, 0.043027956, 0.064210035, 0.0031972881, -0.15333436, -0.03134863, -0.00034297517, -0.04827958, 0.003939533, 0.037131976, -0.017802699, 0.046504613, -0.32726654, -0.322099, -0.010108265, -0.1591204, -0.2536369, -0.016042965, 0.05673854, -0.0065651652, -0.10546462, -0.06387302, 0.06280422, -0.12525529, -0.11458858, 0.038400885, -0.07404504, -0.028330939, -0.043003168, -0.08560369, 0.0023752637, 0.07321148, -0.11082405, 0.12329283, -0.007900703, 0.04327823, -0.17029569, -0.08060204, -0.031798624, -0.034240082, 0.10299728, -0.020566525, 0.030945782, 0.07525076, -0.32663718, -0.24993707, -0.068765074, -0.20936105, -0.28169605, -0.057009093, -0.015596896, -0.12684084, -0.018418942, -0.1073239, -0.031085642, 0.011013752, 0.011638521, 0.13999641, 0.10780398, -0.06036735, -0.033637155, -0.14484821, 0.06798149, -0.043418672, -0.10014041, 0.021157166, -0.07749727, 0.036941864, -0.08537923, 0.0417489, -0.007998992, -0.043513134, 0.10081373, -0.018387914, 0.11872096, -0.054181922, -0.2597737, -0.07655283, -0.044210378, -0.18968455, -0.17197762, 0.01744348, -0.011906448, -0.1922767, 0.04458823, -0.09135867, -0.03614303, -0.01802001, 0.08517936, -0.027721561, -0.013640061, -0.033163987, -0.08807059, 0.013842343, 0.12152095, -0.13625674, -0.02748643, 0.004526301, 0.064308725, -0.053968836, 0.0039528683, -0.07976183, -0.012679501, 0.048729543, -0.08212728, -0.003265822, 0.03744984, -0.14485426, 0.116051644, 0.0069829384, 0.011631797, -0.006377592, 0.030313792, -0.06372786, -0.017761653, -0.007172238, -0.058081403, -0.17532486, 0.049432002, -0.06860459, -0.11795441, 0.040097985, 0.0039308984, 0.03309591, -0.07692409, -0.03157977, 0.108377315, -0.025879744, -0.13132204, 0.016622378, -0.062560186, -0.026375815, -0.13995685, 0.06481192, 0.036196277, 0.06540587, 0.03142687, 0.12652816, 0.024259673, -0.024421059, -0.26111406, -0.23256668, 0.0026869273, -0.11597934, -0.20116186, 0.07459245, -0.024710827, -0.12214311, -0.008896423, 0.042935785, -0.0021575063, 0.040143415, 0.12206978, 0.011767469, -0.02849718, -0.08836656, -0.08845073, 0.11106053, 0.01825199, -0.15648122, 0.0012999264, -0.2105451, 0.012329901, -0.0030375216, 0.025064541, 0.018926479, 0.06137685, 0.047094252, 0.0009086083, 0.12980968, -0.16963392, -0.18712723, 0.056711826, 0.25324133, 0.1335993, 0.044456225, 0.23927866, 0.008841135, -0.024591628, -0.010951715, 0.017502012, -0.14639553, -0.09189014, -0.15754879, -0.2456988, 0.1118341, 0.06551675, -0.05869433, -0.027825011, -0.055619236, 0.00011903688, 0.023443993, -0.17081814, 0.13298717, 0.019185958, 0.15080476, -0.17439093, -0.044593427, -0.03832756, -0.0454279, 0.07686543, -0.03228707, 0.11277926, -0.0091766445, -0.33772293, -0.3535612, -0.13608705, -0.19092982, -0.20749745, 0.0536588, 0.017800823, -0.077154286, -0.0415655, -0.14822534, -0.012962321, -0.1255682, -0.10446758, 0.0011386932, -0.039669946, -0.0005149941, -0.025085859, -0.060468856, -0.029805023, -0.061495636, -0.052501254, 0.0029421719, -0.0692097, -0.009834828, -0.06643445, -0.046336792, 0.027876459, 0.055182625, 0.102252655, 0.06140208, -0.041736394, 0.0007399396, -0.2492993, -0.32475287, 0.006343853, -0.118127175, -0.22998352, -0.093727514, 0.0556609, 0.045423992, 0.10622777, 0.0036914563, 0.03262462, -0.05870683, 0.06632531, -0.0011091145, 0.04546866, 0.0065612504, -0.013943772, -0.035507098, 0.04023936, -0.010918677, 0.07611709, -0.030051315, 0.049206857, -0.105317876, -0.032085087, 0.05918432, 0.022532273, 0.061784685, -0.047268003, 0.06269215, -0.007903137, -0.111280344, 0.035122324, 0.060723733, 0.063213035, 0.0665402, 0.20638013, -0.10145815, 0.001707638, 0.081998035, -0.13930205, -0.11477472, 0.025097491, -0.29432118, -0.22065067, -0.0016935818, -0.07403621, -0.014725648, 0.074158564, -0.17114878, 0.07072595, -0.004483114, 0.032240808, 0.022631949, 0.08832568, 0.08426184, 0.03320243, -0.05463503, -0.04142147, -0.0024162084, 0.12462209, -0.011398961, 0.10672716, 0.028230805, -0.39023465, -0.23430204, -0.078726746, -0.105160855, -0.3965637, -0.019211598, 0.04977015, -0.07879626, 0.026321959, 0.0020045473, -0.07598161, -0.029237729, 0.03272401, 0.018553687, 0.023114337, 0.05305995, 0.0641546, -0.04488024, 0.017575752, -0.060431127, -0.03516684, 0.006513996, 0.051178496, -0.075874336, -0.04223611, -0.076214895, -0.074328855, -0.081176236, -0.065645136, -0.053495344, -0.06436063, -0.009266572, 0.085729465, 0.010872977, 0.073966, 0.043543827, 0.14520918, 0.052692194, 0.031913795, 0.09276397, -0.106053464, -0.058285635, -0.09707913, -0.018496653, -0.14632311, -0.00939926, -0.019687215, -0.042130165, 0.14492472, -0.15876275, 0.049483478, 0.043865085, -0.06338447, 0.12177241, -0.02031175, 0.09927339, -0.11929824, -0.09031614, -0.044422217, 0.046608686, -0.029885441, -0.0154899815, 0.12424066, 0.086776085, -0.07840656, 0.004226519, 0.03969613, -0.009972003, -0.1510103, -0.009046103, -0.06402874, 0.0026131824, -0.2512446, -0.15483731, 0.08007439, -0.18525243, -0.3041636, 0.034202266, -0.037365705, -0.008924738, 0.052233905, -0.13002205, -0.13468932, 0.047564924, -0.15767822, 0.20424254, 0.08945837, 0.10773985, -0.10709695, -0.045805518, -0.05550238, -0.027383158, 0.13132146, 0.09488905, 0.115969166, 0.17655683, -0.4181916, -0.44298252, -0.17218445, -0.08860288, -0.3073042, 0.060169604, -0.0001461106, 0.103370465, 0.13041945, 0.02928421, 0.042852875, 0.069729164, 0.05713663, -0.045632903, -0.10826772, -0.017335694, 0.11355991, -0.056938544, -0.06465666, 0.18210167, -0.08077067, 0.16571459, 0.090308, 0.097753845, 0.16558754, 0.01382855, 0.00046437766, -0.018914487, -0.15998566, -0.13572459, 0.1654673, 0.011316781, -0.012976484, 0.010715743, -0.045579776, -0.07872438, 0.11725992, 0.03212624, -0.027069293, 0.110295564, -0.046705164, -0.053641744, 0.05014676, -0.07985502, -0.11397424, 0.13948159, 0.076571636, 0.023169627, -0.108719945, -0.13007128, 0.10412921, -0.055187285, 0.11245007, -0.10123861, -0.10136684, -0.15510496, -0.25950995, -0.083406836, 0.03700581, -0.09299784, 0.129739, 0.17273058, 0.054659303, 0.029667297, 0.0013891159, -0.12005439, -0.03705581, -0.044492565, -0.074286975, -0.082971714, -0.091964155, -0.08546115, -0.066493146, -0.15412532, -0.013251242, -0.06627848, -0.13666669, 0.07252147, 0.0034479417, 0.05810019, 0.11177296, -0.043761764, 0.030617235, -0.06173009, -0.0051201545, -0.029693592, -0.022750894, 0.04250621, -0.117881864, 0.050014537, -0.074928716, 0.035841443, 0.18687509, 0.15543856, 0.13787133, 0.04393208, -0.17799917, -0.3064559, -0.07426197, -0.080407225, -0.26856372, 0.067449905, 0.069359034, 0.07290229, -0.10681402, -0.16267729, 0.053587098, -0.007858033, -0.16727881, 0.050641987, -0.042449623, 0.029700007, -0.013147996, -0.028556244, 0.013836015, 0.05364636, -0.05369708, -0.002540295, -0.09309542, 0.10271401, -0.15225612, -0.0365341, -0.045954715, -0.017903017, 0.043231808, -0.058256473, 0.080672756, -0.036894552, -0.29189786, -0.30099925, -0.15609634, -0.08703496, -0.14721523, -0.08290965, -0.0074170195, -0.11838354, -0.085653864, -0.064304404, 0.018386742, -0.13731243, -0.16550575, 0.014635778, -0.01831566, -0.06417391, -0.006866447, -0.06452952, -0.06941941, -0.04701122, -0.11373462, 0.021264039, 0.06377964, 0.019929564, -0.077652775, 0.05975086, 0.028206725, 0.04354972, -0.023651911, 0.06315839, 0.04367753, 0.06233749, -0.29051197, -0.17546241, -0.03344779, -0.03970765, -0.09629253, 0.07151766, 0.017594343, -0.05487111, -0.012977681, 0.081035286, -0.077847004, 0.07680808, 0.06924039, 0.12536661, 0.022260712, 0.00915579, 0.008443711, -0.041540112, -0.06657419, 0.006531661, -0.04714773, -0.034820653, 0.09470475, 0.024681194, 0.18272418, -0.018364262, -0.055429317, 0.036735743, 0.037754312, -0.036939513, -0.02834644, -0.037593093, -0.030245109, -0.0327133, 0.01996784, -0.08236019, 0.105609335, -0.05148717, -0.05795389, -0.15561727, 0.06005643, -0.059884254, -0.0649043, 0.05764908, 0.08771396, 0.058738634, 0.03386723, -0.022394918, -0.05433533, -0.026306255, -0.051771227, 0.020447688, -0.032429576, -0.109214105, -0.0781868, 0.054382104, 0.0038689757, -0.050975837, -0.009344148, -0.08744196, 0.06251433, 0.11459067, 0.038098704, -0.13675746, -0.06325134, 0.10091592, -0.013590255, 0.0022847385, 0.040349398, -0.03146735, -0.02765792, -0.033847783, -0.053293366, -0.013397638, 0.068654925, -0.10213012, -0.12989266, -0.058897756, 0.07180044, 0.02199824, -0.042422786, -0.10216596, -0.011628845, 0.10345744, -0.052315637, 0.12649137, -0.041784946, -0.055781297, -0.06798332, -0.057160646, 0.060966946, -0.017135048, 0.05580305, 0.0032388382, 0.062511034, 0.09789552, -0.1081206, -0.111095585, -0.12470289, -0.032872956, -0.04914228, -0.02267825, -0.008813756, 0.02351022, -0.05351016, -0.047131035, 0.07239954, 0.0027574946, -0.021703437, 0.0061668996, 0.032310527, -0.014295549, -0.004922039, 0.026587382, 0.06901069, -0.1474537, 0.12080507, -0.09301851, -0.08336572, -0.07134351, 0.029406065, 0.03348591, -0.007793205, -0.022563992, 0.061815713, 0.07133162, -0.13561806, -0.022494346, 0.15468317, 0.06397549, -0.031845484, 0.12306919, 0.15208995, -0.021316534, -0.018408585, -0.0065343454, 0.20508176, 0.03426387, 0.022144, 0.08692667, 0.00080759334, 0.045983028, 0.043623533, -0.067860864, 0.02787507, -0.13337685, -0.1131323, 0.0636892, -0.073312566, 0.10279132, -0.01265092, 0.009513208, -0.08819048, 0.032824136, -0.014946031, 0.06070281, 0.018215215, -0.1333251, 0.0974106, -0.056961186, -0.043617565, -0.028264655, -0.01783699, -0.054625504, -0.052991446, -0.07325856, 0.042369112, -0.3098407, -0.10619314, -0.115543865, 0.06285986, -0.026492426, -0.048034865, 0.11786625, -0.04768631, -0.071135946, 0.02573616, -0.055634975, -0.028956655, -0.06794148, -0.13936627, 0.123927005, 0.016522652, 0.02503961, -0.14808801, 0.052504495, -0.020719554, 0.035611577, 0.040685028, 0.08302271, 0.06558091, 0.05705514, -0.30194333, -0.2824106, -0.1419286, -0.16799447, -0.13814548, -0.039450083, 0.0074970876, -0.089119904, 0.082201645, 0.041991718, 0.014287117, -0.052911714, -0.011783517, 0.056558277, 0.0701847, 0.054937053, 0.0057747774, -0.05570337, -0.037524197, -0.035739705, 0.10533212, 0.008160362, 0.049976576, -0.08017889, -0.0030033803, 0.033466443, -0.066939384, 0.03882454, 0.059302658, -0.016535837, -0.135514, -0.08803181, 0.027762042, 0.037146512, 0.08667487, 0.11067001, 0.0918078, -0.056225676, 0.020285213, 0.14278835, -0.12046304, -0.1975588, -0.046049993, -0.120703325, -0.22357799, 0.095433295, -0.032259617, 0.072452605, 0.033265322, -0.043769788, 0.020013338, 0.075820275, 0.00036444204, -0.051796496, 0.051071215, -0.015130977, -0.15826264, -0.06264944, 0.0187891, -0.085395105, 0.12150471, 0.1139806, 0.05281749, 0.054721933, -0.33449823, -0.24912632, -0.09617211, -0.10716672, -0.34188536, -0.008735392, -0.07101511, -0.046422556, -0.00598779, -0.09193622, -0.05934866, 0.07832204, -0.02863999, 0.058678214, 0.0029393034, 0.035719194, 0.041984074, -0.029126786, 0.0085466495, -0.014242419, 0.097750366, -0.01719765, -0.0891673, 0.05653813, 0.06182616, 0.06959446, -0.061742328, 0.050415162, 0.049194288, 0.043010846, -0.08149703, 0.015194971, -0.021369483, 0.05205347, 0.018564155, -0.029306995, 0.0070457077, 0.072751455, -0.09165762, 0.044335756, 0.030380148, 0.05343859, -0.06694716, 0.08122997, 0.01132256, 0.17936406, 0.09914721, -0.08681336, -0.08393717, -0.02153435, 0.08324632, -0.104811184, 0.02847837, -0.08656862, -0.030317018, -0.04186501, -0.028508376, -0.03976736, -0.013839339, -0.06808548, 0.05544436, 0.113413274, -0.15059422, 0.056626886, -0.051009897, -0.029286738, 0.077851035, 0.12931737, -0.029929878, -0.0096060615, 0.00662835, 0.0053262543, -0.14306864, -0.02118885, 0.0654864, -0.13896415, -0.2336142, 0.12686013, 0.044603407, -0.053829324, -0.0075952127, -0.032727547, -0.011614497, -0.014907596, -0.110099204, 0.07533572, 0.08838245, -0.06696968, -0.17986104, -0.0420045, -0.04790265, 0.0781512, 0.015083985, 0.11997582, -0.00914235, 0.094647706, -0.35502845, -0.16787623, -0.10923304, -0.048083972, -0.21836038, -0.09544202, -0.084994085, -0.03906961, 0.22312303, 0.043222945, 0.039272383, 0.02828102, 0.07344822, 0.07553009, 0.05671851, 0.051329516, -0.06738375, 0.032796584, 0.08381221, -0.10179392, 0.117551684, -0.0061491537, 0.070737876, -0.03763975, 0.115843005, -0.043698974, -0.031337716, 0.06374377, 0.14575925, 0.11694616, -0.056708623, -0.21070321, 0.13338958, 0.04479978, 0.20802583, 0.101127036, 0.15569562, -0.07114014, -0.0125587, -0.07666917, 0.09153503, 0.027672637, 0.009876865, -0.009021164, -0.08688556, 0.07106743, 0.11354423, 0.0007676476, -0.09442562, 0.0173687, 0.15743978, -0.052720577, 0.04061441, -0.1211233, -0.13979554, -0.16858885, -0.14558373, 0.046003565, 0.027706532, -0.02138627, 0.114318766, 0.100637786, -0.112094514, -0.08796828, -0.021582406, -0.0066628223, 0.1346516, 0.092014715, -0.09542036, -0.008547028, 0.0037230207, -0.08349675, 0.005570984, 0.030858522, -0.056512672, -0.10743652, -0.08001198, 0.074191146, 0.004764006, 0.06382622, -0.025472172, -0.057752732, 0.057055682, -0.13296402, 0.082111806, -0.06317803, -0.0032131178, -0.12915605, -0.17431743, 0.0013084427, -0.046757173, -0.07637741, 0.12333813, 0.09101099, 0.008373118, 0.01367634, -0.07973808, 0.048029482, -0.040316917, 0.16224165, -0.076321326, -0.04717175, 0.042876393, -0.023759225, -0.09876412, -0.041023534, -0.02607179, -0.09275492, -0.16624998, -0.058356337, -0.071371056, -0.040635813, -0.040889625, -0.062572815, -0.025030004, 0.092532665, -0.047554452, 0.009185329, -0.0648343, 0.019850923, -0.21091181, -0.0009089441, 0.06444381, -0.055483177, -0.049445625, -0.0203748, 0.05789721, -0.011708458, -0.221634, -0.2408922, -0.01647147, -0.09028632, -0.22256315, -0.031836662, -0.03725136, -0.06402854, 0.039907426, -0.030014275, -0.0921689, -0.13675949, -0.100217104, -0.011289056, 0.0074803345, -0.024108468, 0.011898138, -0.043525413, 0.05347383, -0.0098086735, -0.16152385, 0.052221898, -0.0043054805, 0.10205806, -0.05776649, -0.038058456, 0.028327456, -0.0039057082, -0.0033608542, 0.055158064, 0.009234703, -0.041155573, -0.13333212, -0.14539707, -0.03618884, -0.20622674, -0.08915523, -0.020528689, -0.07273698, -0.11359962, 0.06039716, 0.02345958, 0.027226627, 0.20113818, 0.15913993, 0.0728451, 0.10362178, -0.029172808, -0.16931695, -0.037500344, 0.026070202, -0.10811368, -0.11701283, 0.0002760061, 0.028900797, 0.005102495, 0.17530392, -0.08927217, -0.086849615, -0.07115978, 0.060660005, -0.08818365, -0.09565026, -0.18589744, 0.009062188, 0.037200164, 0.0157017, 0.059121657, 0.061726756, -0.026881656, 0.05902945, -0.10535144, 0.083372995, -0.093148, -0.07024055, 0.08335826, 0.0785153, 0.034253407, 0.09179407, -0.009985514, -0.026356222, 0.061720096, -0.052536022, -0.0017167274, 0.13943939, -0.07732772, 0.044790555, -0.044874012, 0.06761205, -0.05125253, -0.081025794, 0.0379237, 0.005189562, 0.062658794, 0.021758815, -0.14752477, -0.0059370715, 0.061925042, -0.020864654, 0.10691029, 0.035698034, 0.03117498, -0.10258383, -0.06617232, -0.10073476, -0.113934234, 0.05519516, -0.053017434, -0.13758689, 0.015092676, -0.064631484, -0.07268802, -0.012731753, -0.08210032, 0.008570373, 0.042599823, -0.11736033, 0.12526035, 0.03081905, 0.09472043, -0.009849393, -0.022229264, 0.06364264, 0.02181214, 0.017742418, 0.05675045, -0.012889097, 0.025044253, -0.12648968, -0.061456338, -0.13222179, -0.032822266, -0.15300146, 0.025806997, -0.040276993, -0.10805748, 0.07139364, -0.046105843, -0.07186968, -0.055671368, 0.11720001, -0.065729275, -0.03953689, -0.07547043, 0.050980788, 0.084898755, 0.042097576, -0.052189812, -0.014228873, -0.09959903, -0.03314058, -0.043664128, -0.022441315, -0.063842624, -0.06031936, 0.07385492, 0.039629653, -0.038092382, 0.00864318, -0.0535703, 0.103451446, 0.18259293, -0.023988228, 0.09174518, 0.16455244, 0.015956366, -0.035019007, 0.13430433, 0.17663014, 0.045856487, -0.021999456, 0.17518349, 0.004924756, 0.037115365, 0.07317731, -0.007893596, 0.032489207, -0.03364837, -0.07808393, -0.0058593703, -0.14193006, 0.073289454, -0.15861268, -0.05533943, 0.009864498, -0.023886673, 0.025175916, -0.034161497, -0.12948398, 0.04938926, -0.07346887, -0.09421446, 0.13326985, 0.14089082, 0.021538978, 0.0020424435, 0.08780606, 0.07580457, -0.07221929, -0.048090514, -0.08426896, -0.024978481, -0.029957982, -0.039066825, -0.018651644, 0.023336682, -0.047904637, -0.023821156, 0.044285636, -0.0477712, 0.024190854, 0.06615476, -0.062053878, -0.025561197, 0.03637548, -0.077360846, -0.094537474, 0.03808194, 0.05481812, -0.007353135, -0.026951106, -0.005562979, 0.04116597, 0.009854982, -0.049460776, -0.21689169, -0.10940415, -0.06712724, -0.016849106, 0.071126305, -0.108174, -0.00023383996, 0.035986166, -0.067789495, 0.06764656, -0.012127478, 0.020786095, -0.056507897, -0.06599963, -0.042289767, -0.039719142, 0.039294217, 0.0708101, -0.058686934, 0.022045549, -0.07393564, -0.036707565, -0.08648102, 0.012385654, -0.067803755, -0.04810154, 0.014408392, -0.052976534, 0.083702676, -0.12316994, -0.02390656, 0.103910826, 0.17733018, 0.013932043, 0.09430525, 0.086986534, -0.088179976, -0.10699415, 0.01552077, -0.0027768516, -0.08060468, -0.04398499, 0.00079070264, -0.048639975, 0.10183713, 0.061231036, -0.08294574, 0.009439599, -0.082618706, -0.07390266, 0.017725153, -0.15503928, 0.0053698444, 0.04041444, 0.0042090486, -0.06002701, -0.008715775, 0.093140654, -0.030081037, 0.1424875, 0.08159143, -0.0059994883, -0.014525215, -0.30682084, -0.26476538, -0.075375825, -0.11435555, -0.19552702, -0.018641865, 0.03167884, -0.17427905, -0.068633765, 0.02982236, -0.013090171, 0.01653174, -0.014402367, -0.026504124, 0.04312624, 0.011058323, -0.049141333, -0.042271715, -0.00633084, -4.644737e-05, -0.029193753, 0.038754452, 0.02584161, -0.02617755, -0.043063566, 0.07190949, 0.02437258, 0.028890816, -0.03534059, -0.06810796, 0.013791193, 0.017321791, 0.020780439, 0.1354911, -0.087823324, -0.029800737, 0.14429663, -0.026377663, -0.11101759, 0.11582407, 0.09103564, 0.030263709, -0.01331142, -0.21275228, -0.0411084, 0.13776284, 0.07621282, -0.07875805, -0.04883385, -0.05638241, 0.11594509, -0.018657217, 0.040451534, 0.009867011, 0.06604191, 0.09237087, 0.06250188, 0.025743535, 0.050633825, -0.0638894, 0.088598795, 0.063192256, -0.100850046, -0.032932278, 0.05964075, 0.034897264, 0.12956792, 0.03583295, 0.021161668, -0.000867596, -0.120627135, -0.016814446, -0.113302305, -0.051386155, 0.0002312846, -0.06963105, -0.17947547, 0.10442619, 0.06204117, -0.0053158253, 0.0050489097, -0.09572509, 0.050075125, 0.019744499, 0.011764688, 0.050770447, 0.0101346215, -0.07937878, -0.14090541, -0.003162744, -0.022802858, -0.006934527, -0.0045801545, 0.08936263, 0.018813686, 0.08824775, -0.36703014, -0.20824079, -0.13675953, -0.061438423, -0.19044262, 0.042524766, 0.060048755, 0.055799276, 0.0374936, 0.18812658, 0.010005738, 0.16540508, 0.10118132, 0.12149311, 0.19665645, 0.02952756, -0.0880022, -0.004421129, 0.17848612, -0.15362346, 0.091912694, -0.14201318, 0.06861279, -0.0873385, 0.055834606, 0.020904096, 0.08225348, -0.008699154, 0.18200019, 0.1261973, -0.12035517, -0.15942378, 0.13795514, 0.022401301, 0.05668285, 0.13333584, 0.013324698, -0.03312678, -0.016763175, -0.04057165, 0.032808714, -0.04856391, 0.07814489, -0.03137528, -0.06407631, 0.16796172, -0.02863944, 0.0064990665, -0.10541587, -0.04777912, 0.100918695, -0.06622954, -0.01522998, 0.022389779, 0.017671969, -0.034965113, -0.18743987, -0.033278055, 0.049186155, 0.0038742719, 0.21344887, 0.1849892, 0.045723505, 0.02786216, -0.15861818, -0.021340651, 0.09877353, 0.11103253, -0.03906424, 0.045754295, -0.006726312, -0.11975358, -0.0079662595, 0.067102835, 0.015377065, -0.071448386, -0.010293397, 0.17060734, -0.028157836, -0.058677223, -0.07396843, 0.07767699, 0.12853666, -0.0009506181, 0.10692014, -0.06187482, 0.022525534, -0.05503718, -0.06494145, -0.0065285484, -0.006107054, 0.04577211, 0.09528723, 0.0766443, 0.032643553, -0.039672974, -0.15734, -0.13829966, 0.02030031, -0.021399075, -0.101384856, 0.029767144, 0.041383184, -0.029283613, 0.058604706, -0.12691623, 0.03857462, -0.006175811, -0.037700597, 0.05161846, -0.010535015, -0.028636929, 0.033198673, 0.02553781, 0.025835028, 0.013911712, -0.059346993, 0.023199724, 0.0016043682, -0.008891578, -0.2061947, -0.05321825, -0.085539594, 0.03217597, -0.026801724, -0.0026502043, 0.08214478, -0.011244563, -0.12678722, -0.14975025, -0.029944522, -0.08171764, -0.11256261, 0.04799733, -0.08560821, -0.17037204, -0.09563227, -0.06889452, 0.028608376, 0.05339658, -0.045602325, -0.004764901, 0.048084565, -0.024164034, 0.016626451, 0.012185821, 0.04774155, -0.041219663, -0.13958137, -0.04208854, 0.0358171, -0.0001988872, -0.033948954, -0.011414017, -0.07610048, -0.04483428, 0.040235452, 0.006248539, -0.05838613, 0.09548596, -0.023040866, -0.08644126, -0.1701657, -0.1198585, -0.08298977, -0.09451683, -0.04443333, -0.1073705, 0.010729953, 0.10152819, -0.017042555, 0.06286396, 0.009429633, -0.059827913, 0.07178597, -0.07831903, -0.11958604, -0.08736187, -0.0460149, 0.023361962, -0.031911056, -0.044150956, 0.11936499, 0.016280862, 0.17596915, -0.010346846, -0.06426018, 0.07310219, 0.010111082, -0.04301253, -0.13828051, -0.09924762, -0.03993847, -0.0572122, -0.09459374, 0.0070960685, 0.014691431, -0.04273689, -0.03875556, -0.12575293, 0.029225413, -0.09793648, -0.06571509, 0.012806634, -0.062415037, 0.0662671, 0.0661143, 0.03373929, 0.016470341, 0.10431841, 0.06513778, -0.11989428, 0.0016404097, 0.0226656, -0.055142332, 0.04524907, -0.010317824, 0.07506042, -0.041168455, 0.061891284, 0.014292031, -0.04992933, -0.020477109, -0.09779718, -0.07393467, -0.00845185, 0.08946411, -0.04341926, 0.07416439, 0.059584614, -0.03788229, -0.057542477, 0.030250663, -0.124710314, 0.06945152, -0.08410218, -0.11703265, -0.09659251, 0.0003096857, -0.055619743, 0.041822895, 0.018060477, -0.045199487, -0.00013615629, -0.21221986, 0.05616106, 0.065678276, -0.008049413, -0.028359298, 0.03153573, 0.035454083, -0.006917443, -0.07807012, -0.038120694, -0.0042004655, 0.05282086, -0.079948805, -0.12265568, -0.18886468, -0.13308194, 0.029994162, 0.02111571, -0.05559741, -0.025039788, -0.03228395, 0.032783642, -0.083011284, -0.110869214, 0.03174311, -0.117368825, 0.057743147, -0.030219015, -0.0072649424, 0.019373855, 0.06746314, -0.04557332, 0.07422482, -0.023294901, -0.002462274, -0.057613283, 0.01821156, 0.052088596, 0.026669411, 0.07755094, -0.074285805, -0.07713511, 0.07059284, -0.053600118, -0.06107842, 0.12024778, 0.09409869, 0.07378857, -0.0034129282, 0.005715284, -0.019926812, 0.15019436, 0.011232214, 0.06073044, 0.04787684, 0.115520544, -0.00044562976, 0.029163089, -0.023060134, 0.03252104, -0.14112577, -0.053434625, -0.1059884, -0.073347, -0.15847768, -0.07705756, -0.033542994, -0.020600125, 0.0038015447, 0.034360364, 0.036999974, -0.039572354, -0.12012232, 0.045717247, -0.14372894, -0.05898645, -0.015955051, -0.019093126, 0.020759089, -0.0386121, 0.029024158, -0.05944297, -0.028224405, 0.02768802, 0.03186363, -0.053119916, 0.043248575, 0.025343865, -0.12553063, 0.020799138, 0.03675699, -0.05391942, -0.04835038, 0.06787045, -0.08190064, -0.08872312, -0.10918072, 0.07893531, 0.029422587, -0.06535115, -0.010827539, -0.091816194, -0.07021404, -0.08854527, -0.08952159, 0.05892888, -0.026298014, 0.05680524, -0.057486232, -0.1487536, -0.038742885, -0.03867902, -0.113575935, 0.06726371, 0.0012362421, -0.1045438, 0.03818397, 0.04078491, 0.0035718132, 0.007222287, -0.019004308, 0.009786751, 0.07652318, -0.07264766, 0.014848509, -0.0389384, -0.0072828284, 0.024236929, -0.034508977, -0.03405438, 0.061121587, 0.08630743, 0.08850869, -0.05172584, 0.04650073, -0.021930927, 0.015501344, 0.02043062, 0.05790794, -0.072189875, 0.0542734, 0.12553833, 0.010888038, 0.12518597, 0.09502459, 0.014783196, 0.011789825, 0.096141405, -0.08573415, -0.17235726, 0.012898354, -0.23157848, -0.1573505, 0.12340373, 0.07583809, -0.016855232, 0.01436786, -0.16654277, -0.035908304, -0.0639234, -0.0016867034, -0.075546145, 0.060469043, -0.040850863, -0.0025922707, 0.021104736, 0.031636816, 0.0353577, 0.11340323, 0.12244631, -0.061069902, -0.04368185, -0.17071228, -0.098632246, 0.019024221, 0.013185767, -0.18101746, -0.032254875, 0.024384286, -0.035544477, -0.087690726, 0.035310924, -0.07268521, -0.1153104, -0.07452867, -0.025693234, 0.063666284, -0.082043335, 0.0449112, -0.0018289651, -0.006481696, -0.08872045, 0.088469036, -0.043810554, 0.08366886, -0.038778715, -0.029702263, -0.10074435, -0.038705707, -0.028639173, 0.014775414, -0.06731729, -0.0055481377, -0.10797633, 0.060659785, 0.07083453, 0.06556002, 0.027265951, 0.03684625, -0.016246922, -0.049492914, -0.012323688, 0.09800478, -0.119271934, 0.020091662, -0.23618053, -0.030836992, 0.14225982, 0.07132709, -0.0096049905, -0.051668383, 0.013241341, 0.038094494, -0.033258785, 0.11062449, 0.036584303, 0.061121035, 0.071717136, -0.061911974, 0.012305629, -0.08670109, -0.09235098, 0.15879169, 0.1323067, -0.06851377, -0.11697401, -0.107256494, 0.031426784, 0.06653201, 0.07456145, 0.015401963, -0.001091035, 0.030505003, 0.04489222, 0.0017043347, -0.16310102, -0.0046211123, -0.08452002, -0.2706135, 0.04395643, -0.12209685, -0.018820614, 0.03298293, 0.029350286, -0.15228947, 0.07832079, -0.104833886, 0.07799403, 0.010046428, 0.03848, -0.13444443, -0.09010292, 0.08398758, 0.018580806, -0.06846685, 0.019542051, 0.19040036, 0.06975896, -0.3004767, -0.37025377, -0.12687063, -0.08626287, -0.3521176, 0.047190275, -0.069381125, 0.024595717, -0.069128625, -0.05001322, 0.017046994, 0.017630346, -0.06575396, 0.02684726, -0.06428331, 0.01997833, 0.05075446, -0.1078734, -0.019203518, 0.08560859, 0.08256633, 0.006923987, 0.14418897, 0.008611299, 0.30857432, 0.028636632, 0.015352061, -0.012747844, 0.044147253, 0.0464737, 0.015489591, 0.0105154645, -0.033983037, 0.06408027, 0.051843442, 0.08591368, 0.013708548, -0.020224238, -0.062703796, 0.051223513, -0.03108629, -0.18117568, 0.046499662, -0.0656692, -0.14446872, 0.011500235, -0.035067704, 0.06073421, -0.03831652, -0.009735687, -0.04465394, -0.06222677, -0.17282994, 0.12630028, -0.0047879545, -0.029852863, -0.16491698, 0.009102463, 0.017204335, 0.03409509, 0.111827575, -0.029737808, 0.1064998, 0.09879684, -0.23812555, -0.18894665, -0.09759368, -0.03862764, -0.04592647, -0.0984854, -0.032028254, 0.01085374, -0.0037341898, -0.07972036, 0.072127506, -0.06882633, -0.1361756, 0.09542821, 0.004947221, -0.016174486, 0.14158334, -0.103120044, -0.08456721, 0.002754698, -0.0447817, 0.09591222, 0.07482936, 0.09923803, -0.15314284, 0.025274716, -0.037939545, 0.03866483, 0.029241018, -0.050018784, -0.009105922, 0.06958633, -0.21367589, -0.11046348, -0.22277534, -0.058550213, -0.2830911, -0.07239153, -0.074446395, 0.049094476, -0.08934779, -0.13137263, -0.01706944, 0.026322918, -0.08601638, -0.04715306, 0.0021357657, 0.006959768, 0.08597456, -0.0089921355, -0.100914165, -0.04240423, -0.13642095, 0.10533212, 0.020292407, -0.07558909, -0.19814037, -0.053748652, 0.032818034, 0.042071678, -0.019398065, -0.062122393, -0.008325093, 0.060206074, -0.06657445, -0.106639676, -0.10341417, -0.0967965, 0.03506141, -0.08485046, 0.04347458, -0.054201458, -0.0004944678, -0.020225096, -0.061889857, 0.028043255, -0.087389044, -0.07846061, -0.102940835, -0.053467516, 0.050010107, -0.05930301, -0.0036653813, 0.00456819, -0.17358945, -0.050991353, -0.092687026, 0.06617774, -0.14343801, 0.02801611, 0.048252195, 0.03929171, -0.09735944, -0.040561184, -0.041658226, 0.058818404, -0.0043567372, -0.022921478, -0.18514653, -0.12517075, -0.040237803, 0.057972822, -0.0242503, 0.032625962, -0.021341631, 0.07276037, -0.019797754, 0.12851712, -0.007922542, 0.10578918, 0.121153064, -0.029499877, -0.0342708, -0.08251857, -0.033600435, -0.11794209, -0.15850845, -0.03537861, -0.04736003, -0.06906629, 0.053538427, 0.054382615, -0.08120505, -0.078499824, -0.0048599606, -0.07478522, -0.07240295, -0.11449847, 0.066711195, -0.058155138, -0.018392678, -0.04311475, 0.05845351, -0.0398262, -0.031701528, -0.16472146, 0.066786826, 0.03239791, 0.025540406, 0.032661054, -0.05983818, 0.05538691, 0.009461644, -0.054421067, 0.05343772, 0.11788059, 0.05953648, 0.013441174, 0.035353087, 0.062610425, 0.024258472, -0.06730801, -0.07455885, 0.061758354, -0.044385977, 0.06244817, 0.06759124, 0.017019568, -0.07597612, -0.0921089, -0.029787406, 0.052655675, 0.0075314254, 0.051032633, -0.011767247, -0.072762266, -0.049555786, 0.03535436, -0.03211827, 0.006795731, 0.064591594, 0.11311511, 0.022728033, -0.05492239, 0.02508249, 0.021588724, 0.030045558, -0.090520464, -0.020398702, 0.02041527, -0.099135585, 0.08032816, -0.07119577, 0.004103275, -0.15499234, -0.01051845, 0.043401543, 0.017368002, 0.0013268384, 0.040477134, -0.025598455, -0.00075173145, 0.0075992094, -0.04569464, -0.16529533, -0.20801882, 0.023879461, 0.06849537, 0.03812454, -0.12772797, -0.034944713, 0.0011309537, 0.014842666, -0.107885, -0.028095908, -0.057952926, -0.0032646821, -0.0467121, 0.0751601, -0.009532327, 0.019227978, -0.04350306, 0.14021719, 0.08602742, 0.017856024, -0.026118701, 0.016063126, 0.059550624, -0.029185439, 0.044507526, 0.08261688, 0.056863353, -0.0728736, -0.008122423, 0.00033745525, 0.10858228, 0.05719834, 0.12667152, 0.1048971, -0.02638046, -0.073132224, 0.09469965, 0.05488808, 0.055122025, -0.026664771, 0.20396273, 0.0021411171, -0.10199446, 0.056299582, 0.020423964, -0.10005736, -0.07159508, -0.07058165, -0.0077021974, -0.16447963, -0.03742247, -0.04697948, -0.12897338, -0.016387228, -0.0062225503, -0.06756517, -0.026891513, -0.1171427, -0.0398897, -0.033210848, -0.139422, 0.045046598, -0.052689448, -0.116710685, 0.047218405, 0.080984965, -0.017043278, 0.07523726, -0.055675097, -0.004597914, -0.008642058, -0.0571595, 0.017471539, -0.12142472, 0.024000838, 0.03213613, 0.057916585, 0.016133849, -0.08375528, -0.039723523, 0.06939014, -0.0949036, 0.110613145, -0.10451823, 0.03028414, -0.050788917, 0.0013606299, -0.055040475, -0.046710376, -0.028788064, 0.008212972, 0.04534483, 0.06881833, 0.043260388, -0.0894782, -0.1614076, -0.14391145, 0.0019642543, -0.07095394, -0.10429281, -0.0035636602, 0.07386012, -0.10666004, -0.015843343, -0.028731553, -0.047813416, -0.014183207, -0.046690132, -0.058385972, 0.092054695, 0.02083173, 0.04349623, -0.008527285, 0.09150951, -0.063290186, -0.043691367, -0.012111753, -0.018743813, 0.0028411315, 0.037052907, -0.02564646, 0.0666809, 0.05702345, -0.04697367, -0.1002697, 0.06515923, 0.010545888, 0.112886265, 0.118097484, -0.06316469, -0.092886575, 0.038789697, 0.00886153, 0.025293661, -0.2658695, -0.092455104, -0.18923019, -0.16139075, 0.0053161937, 0.042698026, -0.085849695, -0.021961428, -0.012954638, -0.011744124, 0.07892852, -0.11008459, -0.0023842684, 0.056334116, 0.13336511, 0.06334272, 0.0784758, 0.03838614, 0.07507752, -0.056515317, -0.041849144, 0.151293, 0.1350526, -0.19933997, -0.20922834, -0.15545565, -0.14792703, -0.2089533, -0.015623981, -0.09418363, -0.011821924, -0.012749603, -0.06213251, -0.053277593, -0.040023364, -0.09738764, 0.02821847, 0.011851222, -0.054895893, 0.07602513, 0.012576856, 0.0039235875, 0.017625406, 0.080299675, 0.1268629, 0.0047047627, 0.040932793, -0.0016330618, 0.064502195, 0.020825583, -0.07449448, 0.03193651, -0.060985215, 0.07468018, 0.10999583, -0.08041832, -0.045430902, 0.03567348, 0.049915843, 0.042632274, -0.047414146, -0.031460617, -0.006167696, 0.18178517, -0.18489808, -0.08441874, -0.1774176, -0.0019603015, -0.0012803602, 0.04709259, 0.026706338, 0.11170866, -0.07141383, -0.047311727, 0.003198151, -0.13725029, 0.05218848, 0.0063624983, 0.13611953, 0.024400486, 0.05569479, -0.08207945, -0.03943225, -0.071053416, -0.0089872815, 0.16685864, 0.11258424, -0.18602309, -0.19129995, -0.025192812, -0.10663092, -0.1300917, -0.011979568, 0.01903844, 0.06450984, -0.039010122, -0.059121862, -0.09629732, 0.15912727, -0.21848333, -0.16117232, -0.14327331, -0.0018140981, 0.08263615, 0.045386724, -0.13643497, 0.06792112, -0.21580367, 0.037685897, 0.12443414, 0.006857264, -0.15885814, -0.013625422, -0.041751616, -0.056634557, -0.021724157, -0.12676582, 0.05440822, 0.06621491, -0.093526244, -0.23740478, -0.1973413, -0.1030723, -0.034103047, -0.019597305, 0.029263953, 0.093298, -0.16666672, -0.053098746, 0.010844732, -0.039595548, 0.046724405, 0.07306006, 0.052676138, 0.07065283, -0.043063875, -0.045703083, 0.051983453, -0.03854357, 0.15654515, -0.028949013, 0.19347067, 0.01735056, 0.26511043, -0.017351024, -0.05342404, -0.09178708, 0.120722674, 0.19076625, -0.03132101, -0.13805129, -0.03953268, 0.13664673, 0.02448401, 0.14390583, -0.080641374, -0.080166414, -0.0779774, -0.028304832, 0.08533011, -0.07201623, 0.02843061, 0.15226273, -0.07872462, 0.06477849, -0.013675468, 0.06953226, 0.047905628, -0.0028548562, -0.0759932, 0.053560004, -0.21912341, 0.10641999, 0.06820627, 0.07104377, -0.11034574, -0.008205262, -0.08227168, 0.070613, 0.02867534, -0.052571718, 0.14733586, 0.1014009, -0.18370898, -0.23624268, -0.1039352, -0.054647036, 0.0077390075, -0.04097564, -0.09082901, -0.097683735, 0.032305047, -0.10901041, -0.060525443, 0.13946918, -0.13435832, -0.08389175, -0.16032575, -0.06163591, 0.11052815, -0.009554306, -0.11916908, 0.13555466, -0.28138334, 0.20161602, -0.017402278, 0.061062906, -0.039358348, -0.0257558, -0.09088188, 0.033463262, -0.04268417, -0.0005234162, 0.13532011, 0.21368213, -0.16716711, -0.32227653, -0.31056994, -0.13437955, -0.1512786, -0.06932837, 0.007289197, -0.010201034, -0.038914744, -0.037865244, -0.035034318, 0.16688007, -0.073349275, 0.08957423, 0.08800954, -0.0016137259, -0.07137187, -0.08511181, 0.014701597, -0.024305103, -0.10878488, -0.10854171, -0.08897641, -0.012331073, -0.11747534, -0.0639555, -0.043128658, 0.051835418, 0.08249238, -0.04018862, 0.026211454, -0.01994549, 0.013727992, -0.06074791, -0.018784571, -0.13988936, -0.050826404, -0.09818634, -0.014147525, -0.02748176, 0.03151005, 0.014708165, -0.08878923, 0.1427754, 0.0339229, 0.016460877, -0.0069864616, 0.056530323, 0.06618724, -0.07148484, 0.0665312, 0.06879992, -0.064619735, -0.050727557, -0.014365399, 0.015286682, -0.053184964, 0.07114748, 0.0718502, -0.018411834, 0.012080255, 0.05101043, 0.027836252, -0.025923537, 0.043148547, -0.09091017, 0.016078709, -0.15596834, 0.07532463, -0.046269972, -0.070828706, -0.07651494, 0.0309017, 0.04797746, 0.009507895, 0.07527754, 0.054946598, 0.19233257, 0.10759583, -0.02960172, -0.1397933, -0.05750259, 0.088324964, -0.03129215, -0.0398478, -0.12057509, -0.14639708, -0.035690084, 0.019043097, 0.008730659, 0.059619535, -0.03973776, 0.07863438, 0.08736756, -0.09559719, -0.16504535, 0.09510686, 0.099848434, -0.046453573, -0.020980591, -0.0018593023, -0.09208007, -0.051229242, -0.13387282, -0.084627494, 0.0045255716, -0.07457839, -0.07592083, -0.0064624078, -0.0803922, 0.045485944, -0.044796422, -0.03610628, 0.005469494, 0.070322916, -0.06726496, -0.022431029, -0.073011376, 0.027060987, -0.0011619672, 0.057586733, -0.09004855, 0.04017481, -0.030558657, 0.0079016145, -0.06704763, 0.050840873, -0.009758392, 0.0073061865, 0.075289905, 0.019374652, 0.020646818, 0.052491337, -0.017712893, -0.09825718, 0.064576715, -0.07454163, -0.04501606, -0.00063878304, 0.16522224, 0.046267666, 0.058837675, 0.03789704, -0.0594779, 0.013431972, -0.14385559, 0.005673592, -0.07726507, 0.03820225, -0.075229384, 0.024779947, 0.03431184, -0.118327685, 0.03401344, 0.06958238, -0.014105178, 0.060116068, 0.068053074, 0.048470154, 0.02792578, -0.043514557, -0.0470833, -0.12970296, -0.1302302, 0.049505644, -0.0571253, -0.07299263, -0.05231433, 0.07466369, -0.12464932, -0.05590686, -0.09494863, -0.091257416, 0.026268847, -0.09213048, -0.064683646, 0.02723614, -0.04919261, -0.0009798028, 0.037451807, 0.14447892, 0.11319584, 0.059094608, 0.052742373, 0.04462793, -0.0397757, -0.008906073, 0.005762203, -0.07539382, -0.07369696, 0.024536073, 0.02874212, -0.005109112, 0.07149774, -0.010204165, 0.020197704, 0.05619656, 0.05198545, -0.04118866, 0.090780035, 0.014219949, 0.112614214, -0.025298193, 0.17840289, 0.08254169, 0.023855599, 0.024370167, -0.062861785, -0.11785052, -0.118004784, 0.088232346, -0.11085825, 0.09410901, -0.039731655, -0.0741916, -0.07512974, -0.064636655, -0.025078505, -0.044223446, 0.04284403, 0.058848288, -0.014173502, -0.07903589, -0.16323085, -0.02544454, 0.050895773, 0.08679929, -0.08411148, -0.060124826, 0.024965702, 0.045345556, -0.12021407, -0.0018383113, 0.10343449, -0.05130766, 0.09559752, 0.0639317, 0.062404003, -0.053862065, 0.052879155, 0.036695085, -0.0721024, 0.07826524, -0.07653286, -0.058752127, 0.0329664, -0.06318504, -0.018792015, -0.08675027, -0.02920796, -0.0055325706, -0.04807361, -0.017232103, 0.093105316, -0.05759854, -0.04571898, -0.038088944, -0.08016256, -0.06588181, -0.114084125, 0.0060141073, -0.034976617, -0.085575745, -0.07201374, -0.09648956, 0.009871763, -0.070503086, -0.023749731, 0.046483204, -0.004648582, 0.03293066, -0.015924789, 0.07253894, 0.08047783, -0.086558364, -0.072064415, 0.011372027, 0.014171433, 0.031681314, 0.084944844, -0.0333847, -0.097395144, 0.0040432718, 0.061470553, 0.020964248, -0.030555626, 0.014704176, -0.07835146, 0.022739928, -0.0053458037, -0.02527162, 0.05982569, -0.07551292, -0.10071071, -0.023094859, 0.041519277, -0.106486104, -0.16962706, -0.020106157, 0.10139012, -0.0728215, 0.0067982804, -0.0073670927, -0.038957473, 0.01720846, -0.08254209, -0.04927223, 0.11440799, -0.27354178, 0.06676414, 0.10687518, 0.12739453, 0.0054606744, -0.04704488, -0.02016413, 0.0015717596, -0.15077099, -0.15363601, 0.09000401, -0.011845916, -0.16296205, -0.18622251, -0.20036085, -0.15809588, -0.07953601, -0.00041627177, -0.018215973, -0.075894885, -0.09041187, -0.014074941, -0.004495352, -0.095320396, -0.061469734, -0.08748785, -0.04269102, -0.0074832067, 0.03310923, 0.052898433, -0.017438587, 0.020389216, -0.02322199, -0.014946873, -0.040086098, 0.034462444, 0.008111121, 0.07314093, -0.0640203, 0.078143194, 0.042901285, 0.009362416, 0.041466832, 0.026522217, -0.08713478, 0.08201831, -0.023343787, 0.07012904, -0.042976853, 0.05509156, -0.037215926, 0.04258725, 0.08872557, -0.029513763, 0.0260175, -0.016197959, 0.02394283, -0.060468905, 0.03700226, -0.035156444, 0.05180457, -0.08646947, 0.028292228, 0.1086882, -0.083417244, -0.055413913, 0.03449376, 0.039236862, -0.03749565, -0.040697534, 0.031248685, -0.058648195, 0.08586839, -0.06997739, 0.043112133, 0.09458551, 0.100682944, -0.08267584, 0.0019183209, 0.080365226, 0.106767006, -0.034560755, 0.068338834, 0.099151544, -0.043558758, -5.2899108e-05, 0.018933509, 0.15520881, 0.04875325, 0.026863035, -0.07182617, 0.024393985, 0.07058478, 0.050080538, -0.026302636, 0.028459221, -0.06832718, -0.05083297, 0.13485938, 0.031205446, -0.005209584, -0.024721215, 0.028934821, 0.060829822, -0.18550506, 0.004042864, 0.009287255, -0.010336784, -0.020454716, 0.031471353, -0.24529183, -0.21179724, -0.06814435, -0.047085322, 0.003849515, 0.03300989, -0.0411526, -0.15572879, -0.057716247, -0.123751126, 0.029840985, 0.16970927, 0.01069406, -0.05796079, 0.01587061, -0.017058197, -0.0035553502, 0.062317584, 0.030620903, 0.06651628, 0.08583419, 0.12940396, 0.3159302, -0.014845925, -0.057125524, 0.008942755, 0.060354013, 0.019900898, 0.11155174, 0.056927256, -0.08602676, -0.07053821, 0.094470456, 0.13065833, 0.018395634, 0.010588057, 0.025317926, -0.046570756, -0.0015707407, -0.011948548, 0.054326367, 0.06816636, -0.060500555, 0.037663057, 0.038107593, 0.033203263, -0.037399963, -0.08563025, 0.05073982, 0.011045, -0.11052236, 0.0876871, 0.031617742, 0.098872796, 0.009737072, -0.059637904, -0.08236047, -0.040159468, 0.00073923887, -0.013263044, -0.075227715, 0.07024245, 0.039786577, -0.03934411, -0.09912933, 0.036999714, -0.027859548, 0.053536914, 0.042448606, 0.07505804, 0.07601039, -0.0005364595, -0.011479562, 0.23408425, -0.007634177, -0.08136865, -0.13301635, -0.012228906, -0.016259352, -0.03744302, -0.02384965, 0.1027316, -0.25553432, 0.04832597, 0.05176057, 0.05908128, -0.1616179, -0.06882731, -0.016687956, 0.039417308, -0.17285566, 0.01510071, 0.084297664, 0.0071251364, -0.026599681, -0.11333058, -0.20914023, -0.2021556, -0.048919566, 0.06802491, 0.0068050805, -0.051248092, -0.03189397, 0.009866285, -0.01353705, 0.01064847, 0.08104947, 0.064508975, -0.046527673, -0.023667892, -0.015629409, -0.08575257, -0.0042383126, -0.05953184, 0.031418435, -0.0044454616, -0.11225546, -0.12922983, -0.10692171, 0.06034991, -0.06569339, 0.07364305, 0.07288455, -0.03331876, 0.01687916, -0.04756069, -0.05432475, -0.05216023, -0.124707475, -0.16084042, 0.093367584, 0.030214762, 0.030078277, -0.007082928, -0.030980762, 0.015876994, -0.0096732685, 0.060541835, 0.016336892, 0.09306854, 0.050839618, -0.08888271, 0.05675854, -0.15854807, 0.09861476, -0.021542065, -0.06570015, -0.020257322, 0.0014892456, -0.13649088, -0.16362451, 0.05432093, 0.03317004, 0.07230314, -0.055589713, -0.04512304, -0.020402722, -0.029752428, -0.056386933, -0.06862632, 0.0022288044, -0.16838741, 0.0252158, 0.037201934, 0.07446871, -0.060130503, 0.016773604, 0.030165765, 0.00019832399, -0.0070653795, 0.052267253, 0.18461034, 0.109800324, -0.03784024, -0.18793777, -0.14582376, 0.056790624, -0.120889336, -0.034131784, -0.13868041, -0.114334404, 0.01769822, 0.04162392, -0.0010265931, 0.060604665, -0.0075944588, 0.13044494, 0.0948995, -0.119483136, -0.05101572, -0.05878672, 0.010139092, -0.0595737, 0.044869784, 0.068428606, 0.049278773, 0.04878355, -0.22427261, 0.052880064, -0.030728115, -0.055466823, 0.01648505, 0.060615525, -0.104121566, 0.04755513, 0.043408766, 0.024471402, -0.028111922, -0.10420011, 0.055690717, 0.095097385, -0.020224739, 0.009790131, -0.028975574, 0.09480354, -0.04673211, -0.061370157, -0.074046366, 0.010536597, 0.028878095, 0.06302187, -0.10376665, -0.096849985, 0.0558003, -0.007181348, 0.109209254, 0.022812016, 0.016738197, -0.039388377, 0.036063027, -0.07987748, -0.019949974, 0.059260797, -0.016627988, 0.06850386, -0.041502547, 0.11365513, -0.08097473, -0.09261298, -0.0037965488, 0.01945288, 0.03361341, -0.026746873, -0.1229913, -0.13528642, -0.1455645, -0.098130256, 0.045428663, 0.07183022, -0.024385264, 0.026390996, 0.086554214, 0.015742905, -0.044836923, 0.010113528, -0.018512208, 0.07757946, -0.029803924, -0.05844493, 0.024520487, -0.07363762, -0.03684057, -0.018111184, -0.060884673, 0.050358437, -0.11896848, -0.05679743, -0.06198046, -0.061452378, 0.084718645, 0.073047146, 0.0075137387, 0.0140478015, -0.047479704, 0.056675144, 0.08566521, 0.0849115, 0.022026507, 0.018177174, -0.021547435, -0.08798756, -0.075399734, -0.03413657, 0.068879105, 0.08131153, -0.11989823, 0.07089817, 0.05460307, 0.1279538, 0.05567638, -0.016297508, 0.07009346, 0.0592751, -0.00077677116, 0.047317356, -0.054854453, 0.062438592, -0.0029547063, 0.0015487392, 0.028151099, 0.023664469, -0.07986865, 0.060572527, -0.2068282, -0.0384929, -0.13418308, -0.063312605, 0.020414853, -0.22570047, -0.08489374, -0.05815246, -0.0823112, -0.0983903, -0.005212125, 0.0016447454, 0.06882503, -0.058950074, -0.014527738, -0.12929964, 0.05328292, -0.04020327, 0.029172027, -0.038224153, 0.03527694, 0.045155738, -0.21205565, -0.08082584, 0.10327774, -0.03634896, -0.06767535, -0.002374559, 0.044546336, 0.07498953, -0.070880786, -0.04172444, 0.0378082, 0.06578726, -0.07655487, -0.060414076, -0.016397204, 0.022771701, -0.119170114, -0.15023339, -0.046964068, -0.016128268, -0.08543314, 0.029490246, -0.03895984, -0.06321198, 0.016639944, 0.003861813, 0.019941356, -0.07470026, -0.0014728372, 0.051182248, -0.08688446, 0.012011895, 0.03165132, 0.03211981, -0.097176395, 0.04238578, -0.06412998, -0.054939363, 0.02353838, -0.0026657095, -0.06117996, -0.016991735, 0.07406111, -0.024673538, -0.08376269, -0.029141204, 0.0016028272, 0.101034604, 0.018095182, 0.13292564, -0.021829814, 0.07556441, -0.054855872, 0.009021666, 0.075522766, 0.11562451, -0.09698485, 0.039141696, 0.05480672, -0.0058222166, -0.023045769, -0.037306584, 0.054071598, -0.02293535, 0.037085894, -0.08172682, 0.10765302, 0.010574248, 0.11275426, -0.06179749, -0.052065056, -0.031090505, 0.003872417, -0.06727589, -0.05884692, -0.10958808, 0.00478431, -0.033104844, -0.02717916, 0.066647545, 0.022759426, -0.030370822, 0.036794588, -0.07545239, -0.033966456, -0.14336503, -0.004446556, -0.07641196, -0.03638467, 0.020919563, -0.06232306, -0.18746957, -0.24176317, 0.014962155, -0.052983563, 0.07624016, 0.020355606, -0.05390907, -0.09672968, 0.08307409, -0.009795037, -0.039364114, -0.03685308, 0.057012588, 0.005074896, 0.10538537, 0.109394394, -0.056056328, 0.019091228, -0.0005905213, 0.08645918, 0.024211992, -0.049767938, 0.0591091, -0.0069715567, -0.017428564, 0.013288959, -0.038062662, 0.05325647, 0.010973512, -0.054733638, -0.12053548, 0.08463325, 0.06389209, 0.04534983, -0.065626904, 0.06998096, 0.04089896, 0.10070365, -0.06681293, 0.031232404, 0.052608, -0.12610324, -0.11103153, 0.033342298, -0.09236877, 0.07730755, 0.032879844, -0.107206054, -0.07996834, 0.1617158, -0.07272451, -0.0930402, 0.113054655, 0.021333981, 0.02148553, 0.05459996, 0.049337443, -0.04050928, 0.050218347, -0.0032569221, -0.0047517014, 0.047858085, -0.024823427, 0.09965047, 0.010880126, 0.064558215, -0.117886215, -0.07236662, 0.059720654, 0.04959983, 0.2117204, 0.052983128, 0.05546084, 0.4021866, 0.00756081, 0.0551955, -0.0105415145, -0.070707545, -0.07230411, -0.012679698, -0.072198145, -0.06351783, -0.05443576, -0.102294676, -0.0812292, -0.100642554, -0.13295648, -0.08212284, 0.038539343, -0.00377066, -0.07297158, -0.009098204, 0.05744904, 0.031674422, -0.008058135, -0.07194086, -0.08884562, -0.14539981, 0.13943008, 0.051476505, 0.06778322, -0.059578463, -0.10884645, -0.19707155, -0.07897136, -0.04894895, -0.056224767, 0.12330242, -0.010612268, -0.053099837, 0.011886046, -0.037314318, 0.0074330377, 0.21030656, -0.11529462, 0.06760251, 0.11825247, 0.1111556, 0.1796363, 0.0021716177, -0.036133643, -0.061807893, 0.0004378357, -0.10428011, 0.009312175, 0.13351175, -0.2058305, -0.0901561, -0.08946645, 0.019765794, -0.01411529, -0.055797018, 0.026839776, 0.11157293, 0.21924493, 0.06937253, 0.03963094, 0.3811537, 0.11377589, 0.15444677, 0.10699994, 0.05656031, -0.026271421, -0.028147029, -0.008335041, -0.15642048, -0.14142211, -0.08250208, 0.02918737, 0.044227004, -0.07462783, -0.08297677, -0.054911077, -0.060855146, 0.042431764, 0.010769985, -0.13854164, 0.018001493, -0.007393836, -0.0011092153, -0.10940347, -0.014267303, 0.037400503, -0.079114705, 0.059814934, -0.07687586, 0.15080462, 0.02559213, -0.079707995, 0.3728545, 0.05987619, 0.028713346, -0.043200944, -0.011929002, -0.07149863, -0.09392825, -0.05221523, -0.12789439, -0.22075476, 0.08462906, -0.11988987, -0.08146691, -0.1279366, -0.05383915, -0.08968046, 0.047397442, -0.13346179, -0.08072761, -0.05927523, 0.064982116, -0.12194262, 0.006365048, -0.14714158, -0.17502634, 0.06375464, -0.09553503, 0.05235044, -0.15803896, -0.062853396, 0.011286133, -0.00409837, 0.02129974, -0.032134015, 0.09671562, 0.093313426, -0.045278523, 0.042755608, -0.080512896, 0.016417954, -0.11870765, -0.07417353, -0.07332905, -0.06715015, -0.06788756, -0.17870827, 0.08371861, 0.07272615, 0.07221021, 0.00047261405, 0.09400071, -0.052370522, -0.07247295, 0.0095720915, -0.08338472, -0.056811243, -0.13967149, -0.00284017, -0.027788548, -0.06674006, -0.07555267, 0.062024098, 0.014905376, -0.05934019, -0.005798979, 0.037583258, -0.03361496, -0.021274893, 0.07845129, 0.0067086243, -0.052579913, 0.11891658, -0.015746461, 0.06221512, -0.08324675, -0.09587957, -0.17959026, -0.20559712, 0.029236272, 0.06971859, 0.08179825, 0.10424756, 0.01471142, 0.0033943478, 0.028778931, 0.036430098, -0.014936006, -0.053313054, -0.12098133, -0.10152578, -0.082515754, -0.05419076, 0.03776844, -0.0794804, 0.017848229, -0.014651744, -0.011088568, -0.013744014, 0.022536116, 0.055056006, 0.08492769, -0.01403282, -0.1693389, 0.08527931, -0.049008634, -0.077998176, -0.035832286, -0.099523894, -0.064924546, 0.08089726, -0.03567348, -0.05627961, 0.014597889, 0.034090225, 0.023506388, -0.006462091, 0.026398148, -0.025587652, -0.05109217, 0.057884213, -0.106755435, -0.006921027, -0.0846327, -0.020109223, -0.08027716, -0.008778371, 0.0034654129, -0.085206285, -0.11249976, 0.0099365255, -0.006517296, 0.03737803, -0.074672416, -0.04589351, 0.089816675, -0.04302507, 0.06524309, 0.037972547, 0.018346388, 0.020873213, 0.005156564, 0.03670161, -0.024597475, 0.03408243, 0.032139707, 0.03001804, -0.06783081, 0.006537226, -0.03647721, -0.12425768, -0.01954556, 0.06345215, 0.09032068, -0.07853086, 0.0036553761, -0.007716126, 0.050460443, 0.037562896, 0.020654963, 0.074210584, -0.056133658, 0.06618276, 0.011763083, 0.07332432, 0.035367202, 0.06186442, -0.08511946, -0.003116777, -0.049452867, -0.03534905, 0.025839707, -0.12669447, -0.050178334, -0.05895536, 0.0023894385, -0.00042758437, 0.023854174, -0.0017320149, 0.011994001, 0.039241526, 0.09273403, -0.11309832, -0.12723418, 0.0130012445, -0.016260834, 0.047685374, 0.0060054893, -0.013838865, 0.048979376, 0.03467815, -0.04653692, 0.040534746, -0.052797478, -0.058341112, -0.06876944, -0.07115303, -0.06124866, -0.015193774, 0.040742233, 0.0030534943, 0.024605632, 0.077935465, 0.08920662, 0.12383057, 0.023811428, 0.0011196894, 0.029211355, 0.04874844, -0.03679009, -0.020699618, 0.04195238, -0.018588873, 0.005462199, -0.017618366, -0.06634353, 0.08499408, 0.124151364, -0.011822978, -0.1008919, -0.008696986, 0.06987168, -0.17107856, -0.2682783, -0.03023674, -0.025991391, -0.15824397, -0.02275754, 0.024299303, -0.026541593, 0.19483013, -0.10965947, -0.10905219, 0.08040096, -0.11786725, 0.1369571, -0.17795083, 0.1623117, -0.04182929, 0.0025240332, -0.06643615, 0.033569213, -0.0777003, -0.163994, 0.11881069, 0.14738788, -0.14557166, -0.2845231, -0.07854647, -0.1828343, -0.22241288, -0.072696194, -0.046783425, 0.04770993, -0.026478747, 0.12116399, -0.08543737, 0.046451814, -0.035237692, 0.044651974, -0.0015493733, 0.012344086, 0.018668728, 0.06792688, 0.044016276, 0.043765694, -0.057625692, -0.052654173, -0.09775952, -0.11182563, -0.050692514, 0.05268784, 0.022177573, -0.026196677, -0.040561132, 0.034673195, -0.016018612, 0.04727915, -0.019108266, -0.076263554, 0.017987179, -0.098009504, -0.013420546, 0.025002621, -0.090075105, 0.0848868, -0.030130828, 0.0013804269, -0.056038108, -0.10807903, 0.006322275, -0.05579268, -0.04657792, 0.03151297, -0.031268705, 0.043328382, 0.0401093, -0.04864511, 0.039596107, -0.015053437, 0.16194029, 0.047265705, 0.07356157, -0.05203586, -0.08630406, -0.015316216, -0.034604434, -0.061833274, 0.003545946, -0.045695454, -0.025741048, -0.04226348, 0.007540125, 0.024981095, -0.140948, 0.03421614, 0.07216662, 0.09550265, 0.114565566, 0.05996897, -0.05006272, 0.18546234, 0.12364224, 0.13451497, 0.0683915, 0.021567151, -0.08161472, -0.06364454, 0.059629988, -0.011914027, -0.06281312, -0.017090658, -0.13773766, -0.048261967, -0.20579079, -0.045254316, -0.032599848, 0.02227824, -0.080871604, 0.007098712, -0.068716444, -0.07812677, 0.051598426, 0.060943488, 0.004402269, -0.14893892, 0.0580402, 0.0053729834, 0.03366015, -0.2409433, -0.07834584, 0.021850694, 0.05124316, -0.07787004, -0.10821437, -0.061858736, 0.003079918, 0.0018908009, 0.04269006, 0.048840895, -0.037644517, 0.027661841, -0.024157975, -0.02277237, 0.07462447, -0.026149586, 0.043303322, -0.028404627, -0.06298817, -0.06837494, -0.037130143, 0.090928674, 0.010721313, -0.14043623, 0.04092654, 0.054907415, 0.08865011, 0.098481126, 0.004738753, 0.064925395, -0.063936144, 0.11010243, -0.003986074, -0.22132163, -0.06348544, 0.17298116, -0.05899837, -0.0926996, -0.007959654, 0.020088855, 0.039487965, -0.013452618, -0.121915646, 0.16467032, -0.09333695, 0.20213334, 0.033995382, 0.11659192, 0.016246457, -0.075843126, -0.06597495, -0.057628725, -0.15258944, -0.13024007, 0.07930071, 0.049071793, -0.22930373, -0.08399858, -0.02010691, -0.08634777, -0.11256742, -0.097805396, -0.04876031, -0.18795736, -0.028461777, -0.032155197, -0.04021145, 0.38872078, -0.12902103, 0.056612104, 0.016658746, -0.026351107, 0.108837575, -0.11706757, -0.18933973, 0.0046171434, -0.22732621, 0.16916686, -0.010117613, 0.1253579, -0.2216281, -0.081637606, 0.028914783, -0.018796993, -0.17396092, -0.05015142, 0.17760943, 0.066253655, -0.12854733, -0.2803325, -0.2047539, -0.2750651, 0.008045891, -0.066307686, -0.048615202, -0.07641284, -0.078933075, 0.093710326, 0.010338884, 0.10017545, -0.008155215, 0.15724632, 0.03439264, -0.056687325, -0.0607206, -0.05292001, 0.065349676, 0.0013666253, -0.12480515, 0.035679244, 0.086469956, -0.0065781325, 0.12185092, -0.036659747, 0.055192508, 0.04471254, 0.08031478, -0.056205306, -0.08029483, -0.050035447, 0.03741825, -0.043761134, 0.013623086, 0.017874965, -0.09818506, -0.041351132, -0.068613715, 0.143215, -0.06542584, -0.1822361, -0.050363965, 0.29809105, -0.1911996, 0.05983498, -0.07784944, 0.053963207, 0.12615095, -0.07061541, -0.2034167, 0.042523783, -0.44798136, 0.32593316, -0.12532598, 0.25248697, -0.14775023, 0.044813123, -0.042843074, 0.020731963, -0.20075959, -0.19424179, 0.13525096, 0.16396117, -0.2612522, -0.24339327, -0.20252813, -0.33603206, -0.17440641, -0.036453158, -0.09482001, -0.23174118, -0.037674222, -0.074967906, -0.06188361, 0.31638658, -0.06201069, 0.04039266, -0.09531228, -0.05291671, 0.14150727, 0.017195193, -0.1942307, 0.15735403, -0.36859205, 0.15057023, -0.14558394, 0.15345214, -0.15967043, 0.022268515, -0.10073185, -0.08043041, -0.106495716, -0.08377707, 0.14581357, 0.17486486, -0.37222463, -0.32241833, -0.36301452, -0.34748864, -0.18358587, -0.04780985, 0.024912301, -0.124171756, -0.11943198, 0.08591383, -0.030551357, -0.030242966, -0.029094413, 0.1002075, -0.009066262, 0.02699784, -0.014737646, -0.07425163, 0.11614957, -0.05981517, 0.003718604, -0.00067228836, -0.012815447, -0.13791567, -0.13362195, 0.05157067, 0.043886255, -0.025199525, -0.016395707, 0.04076504, 0.017334357, -0.061219208, 0.0033370806, 0.044836666, 0.014457759, -0.023585048, -0.046052247, 0.05208286, -0.05924702, 0.003987256, -0.093523696, 0.018705143, -0.038538564, 0.023620166, 0.07570707, 0.05449933, 0.0059239133, -0.0067515257, -0.012247321, -0.034942485, -0.015190444, -0.068947814, 0.13128996, 0.0048246584, 0.009825374, -0.12632436, -0.17001781, 0.046219513, 0.018585706, -0.080660075, 0.10766858, 0.1002505, -0.12199839, 0.008837193, 0.0052251955, 0.06662838, 0.07905133, 0.0011562173, 0.012996784, 0.04670487, -0.06739243, 0.032017067, -0.043672428, 0.11432191, -0.030784508, -0.1606038, 0.18933518, 0.039792154, 0.105155215, -0.047752537, -0.109062925, -0.10484672, 0.11917366, -0.08758306, 0.11882833, -0.20524621, 0.040600467, -0.1715993, 0.09046263, -0.04161003, 0.087433025, -0.08583158, 0.28654945, 0.2094397, -0.1758483, -0.18485019, 0.1185108, 0.07190161, 0.08822663, 0.03029268, 0.012626664, 0.033116475, -0.08135693, 0.014005744, 0.0641647, -0.10391739, -0.013036901, -0.053108715, -0.061143212, -0.05010291, -0.07976639, -0.04577757, -0.04858552, 0.023497874, -0.09536206, -0.084730886, -0.088740975, 0.022664294, 0.120312795, 0.09590847, 0.10582824, -0.095442, -0.06102638, 0.0541173, -0.014943833, -0.039921306, 0.023765035, -0.026986096, -0.035523064, 0.07216139, -0.0014845242, 0.023315188, -0.06758897, 0.028674755, -0.08726446, 0.007299302, -0.052932553, 0.11702697, 0.009002431, -0.048630197, 0.13413568, 0.057278782, -0.008837126, -0.079085186, 0.01325973, -0.15519296, 0.039406497, -0.10787374, 0.050501492, -0.17347293, -0.02147403, -0.23103301, -0.14715867, -0.0896237, -0.012814741, 0.029891156, 0.020605637, 0.1064054, -0.06817937, -0.09419125, 0.04338005, 0.023659578, 0.04583051, 0.047865335, -0.059512306, 0.07879232, 0.06876745, 0.019759828, 0.03899178, -0.078874335, 0.045980573, -0.07376954, 0.04343189, 0.009494179, -0.05376844, -0.069774196, 0.04616555, 0.054299686, -0.047931753, 0.043607593, 0.11061012, 0.06865365, 0.045998044, 0.0237068, 0.02732757, 0.00197144, -0.06468004, -0.019574568, 0.07931229, -0.040365692, 0.015070814, -0.13168968, -0.06755157, 0.083509, 0.024709038, 0.118620634, 0.06863089, -0.04687127, -0.09699928, -0.011368312, -0.0662407, 0.12709989, 0.01857302, -0.19013077, 0.088125385, -0.0026382708, 0.14019138, -0.024084589, -0.1593621, -0.10319358, 0.16407655, -0.18959635, 0.16575623, -0.09062877, -0.0577664, -0.2092255, -0.06736777, -0.078844026, -0.04890581, -0.08882583, 0.020754134, 0.09570293, -0.17305684, -0.17555794, 0.014012709, -0.002006375, 0.0583423, -0.09380811, -0.024439577, -0.0878397, -0.054213453, 0.11966844, -0.02497021, -0.0118648, -0.06031782, -0.008940019, -0.08634047, -0.08180598, -0.002085799, -0.09100261, -0.029186243, -0.07135737, -0.0029670116, -0.08538248, 0.111573525, -0.10570383, 0.025921972, -0.011472461, -0.065606, 0.0132594155, -0.053207982, -0.022460869, 0.06075523, 0.022742711, -0.057343956, 0.04769629, -0.00701917, -0.008555215, -0.07924689, -0.08430417, 0.033358507, -0.017302042, -0.0916379, 0.111071184, 0.02698588, -0.01084348, -0.034008153, -0.028685508, 0.009806971, 0.032865304, 0.0028506413, 0.06634948, -0.035205714, 0.06030297, -0.07411679, 0.057968643, 0.069700934, 0.06331408, 0.00084077375, -0.02108809, 0.0020904904, -0.07370056, -0.01876181, -0.084787294, -0.05606383, 0.004701635, 0.10199337, -0.10134317, 0.03494805, 0.094005, -0.0012033316, 0.007844468, -0.012554774, -0.09986959, -0.032410454, 0.019265816, 0.066506274, 0.0086508, -0.044438362, 0.20499305, -0.113926925, -0.109969616, 0.01451442, -0.060593825, 0.018821627, -0.10116403, -0.035612896, 0.10874367, -0.1847038, 0.07729408, -0.095482185, 0.0339143, -0.11079981, -0.04735078, -0.07145074, -0.053436223, -0.07977753, -0.15099415, 0.012872734, 0.13187556, -0.065458566, -0.14047457, -0.22620185, -0.21274069, 0.019661712, 0.0072965734, 0.029902808, -0.095604666, 0.011941365, 0.045355048, 0.08640725, 0.050623197, 0.01110225, -0.09780405, -0.053516585, -0.0388554, -0.046042614, 0.031781316, 0.042445548, -0.08763739, -0.042576317, 0.027861927, 0.10465313, -0.011053975, 0.08834072, -0.009509978, -0.043692797, 0.07163183, 0.06407279, -0.029792396, 0.039016593, -0.01650747, -0.11396636, -0.046382464, 0.017068839, 0.10224691, -0.021400355, -0.051034562, 0.025683228, 0.037340105, -0.00868098, -0.19555187, 0.01660678, 0.0273389, -0.1478229, -0.0821272, -0.12349512, -0.0047157183, 0.09802259, -0.16091202, -0.07225576, 0.11664624, -0.19445461, 0.15998751, 0.05846901, 0.0391566, -0.030367266, -0.040205613, -0.004532644, 0.009613477, -0.059502795, -0.07840072, 0.096422575, 0.1366611, -0.13347465, -0.1475897, -0.03902187, -0.02060445, -0.06853935, 0.026681907, -0.020966029, -0.054206602, -0.054018114, 0.17145276, -0.018820891, 0.28902513, 0.114280134, 0.00447124, -0.030459674, -0.0120132305, -0.13033004, -0.06762207, -0.016302394, -0.009659784, 0.040179096, -0.05853719, -0.07068163, -0.106400415, -0.12901297, -0.039224956, -0.09220762, 0.047354132, 0.09010283, -0.010364561, -0.09953862, 0.034758497, 0.12560421, -0.08734814, 0.01095143, -0.07658811, 0.0092082145, 0.06888835, -0.023106916, -0.073641054, -0.117209814, 0.04729995, 0.0046811174, 0.121566795, -0.012024984, 0.16429934, -0.016268237, 0.0121895, -0.067210235, -0.035584353, 0.071398586, 0.051494956, -0.095586784, -0.0014382334, 0.21573414, 0.1571261, 0.09582479, -0.08393628, -0.017742485, 0.05931914, -0.014467828, 0.06720568, 0.036765885, -0.0047642784, 0.12043921, 0.05306535, 0.06496265, 0.029584385, 0.13391136, -0.08502418, -0.041905493, 0.13401264, -0.17115355, 0.037672486, -0.058980074, 0.13741574, 0.005071206, 0.013185521, -0.022550415, -0.028362328, -0.08282501, -0.049739856, -0.017988067, -0.020411357, -0.0041611046, -0.05746675, -0.000108570996, -0.12033846, -0.06332645, -0.00019709766, -0.07448273, -0.03353799, -0.04807093, -0.053475987, 0.0063469233, -0.04627574, -0.059418425, -0.17494965, 0.021522606, -0.15178965, 0.005095174, -0.007569543, -0.09087096, -0.07067878, -0.06966287, -0.03416773, -0.059001487, 0.28011367, -0.096078254, 0.039363496, -0.04541387, 0.06498593, 0.11332985, -0.05852202, -0.059648078, -0.08152057, -0.172226, 0.09176722, -0.06369881, -0.01032494, -0.10880322, -0.048898198, -0.025183959, -0.058633037, -0.042755567, 0.032985203, 0.027640928, 0.09822833, -0.15213867, -0.18986332, -0.17840561, -0.1890599, -0.13237713, -0.029460043, -0.045402084, -0.048374802, 0.027062604, 0.22906044, 0.0134909265, -0.06738099, 0.148697, 0.04856394, 0.11844555, 0.02333272, -0.064377196, -0.18375424, 0.05337609, -0.04027262, 0.21974812, -0.14658421, -0.03575384, -0.24536344, 0.0038688486, 0.05481918, 0.05169862, 0.034449227, 0.07312312, 0.069668576, -0.07014974, -0.105746694, 0.1715778, 0.11322123, 0.08287001, -0.04154889, -0.019033207, 0.020070234, 0.06385793, 0.026998311, 0.04793405, 0.19375043, -0.09337093, -0.084276766, 0.07388035, 0.0038791378, 0.028416451, 0.0008563787, -0.047278862, -0.11908295, 0.15284128, -0.17162485, 0.20813426, -0.12466905, -0.1472803, -0.3454763, -0.13629739, 0.015082075, 0.03551564, -0.046599384, 0.07576425, 0.17235212, -0.16424118, -0.0758427, 0.11139461, 0.1405166, 0.113814, -0.0034792668, 0.013354223, -0.040354934, 0.05309223, 0.090560056, 0.079809375, 0.14300805, -0.08229186, -0.13630946, 0.23267804, 0.201277, 0.114484556, 0.024372764, -0.30555883, -0.17971891, 0.23088141, -0.2403103, 0.22317591, -0.19584452, -0.106637195, -0.12947623, -0.14118628, 0.0052188635, 0.04279274, -0.017946541, 0.29731905, 0.19986807, -0.25693017, -0.33936265, 0.24722561, 0.24944395, 0.25550792, 0.13860011, 0.17472288, -0.0059880572, -0.029765334, -0.08791281, 0.055554844, -0.08636855, -0.07168773, 0.08468136, 0.05127097, 0.012543939, -0.04802008, -0.012333905, -0.021771688, 0.030858971, -0.07320362, -0.092012145, 0.007995023, 0.06366468, 0.041461058, 0.002691493, -0.031590782, -0.0809888, -0.080957256, -0.027083086, -0.07371358, -0.107195385, 0.09028632, -0.028844057, 0.0021358258, -0.032980934, -0.041117176, -0.019494828, 0.027199883, -0.013992257, -0.065998115, 0.07083935, -0.08553781, 0.1306788, 0.045981985, -0.013580912, 0.06228076, 0.053892154, 0.09389352, 0.061776552, -0.11505966, -0.06301345, 0.09629214, -0.05486936, 0.2534435, -0.22096045, -0.029483583, -0.24227512, -0.11870277, -0.087961055, -0.06767298, 0.063666165, 0.05046445, 0.059947204, -0.1522938, -0.17666781, 0.12066612, 0.035619333, 0.2005606, 0.124313846, -0.026645806, -0.06718291, -0.045562103, 0.05895289, 0.04070762, -0.11326924, -0.038444094, 0.09059723, 0.04912809, 0.048029557, -0.05789946, 0.034383707, 0.04124754, 0.06356938, -0.08820286, -0.05852994, 0.03194101, 0.016407087, 0.03412394, 0.09063345, 0.041811053, -0.07487203, -0.038739208, -0.015322269, 0.007455235, -0.039640933, 0.099843316, -0.09033759, -0.011792182, 0.044472355, -0.037521694, 0.08733319, -0.05273868, -0.079005994, -0.0073361313, 0.09028661, 0.02245713, 0.31629497, -0.042241108, -0.15906979, 0.27127346, 0.06057662, 0.15448256, 0.06681261, -0.11937189, -0.1963309, 0.098023035, -0.18191953, 0.45663586, -0.21544407, -0.25311545, -0.2823209, -0.10481015, 0.042406913, -0.041264728, -0.004453094, 0.2529049, 0.22009584, -0.20652267, -0.15896063, 0.19748592, 0.20923929, 0.28054926, 0.07913099, 0.21517421, 0.010251357, -0.06422232, 0.09463487, -0.072079234, 0.1911114, -0.014079059, 0.011031407, -0.021280438, 0.108012706, -0.00072776654, 0.05834024, 0.03538598, 0.09958703, 0.0978592, -0.027612213, 0.0848, -0.07009317, 0.055075992, -0.19759203, 0.027301224, -0.016839106, 0.012767547, 0.043899927, -0.019321913, 0.05050378, -0.17042391, -0.09093476, 0.10240694, -0.0024616693, 0.09621732, 0.045532383, 0.034443915, 0.040196646, -0.00074240315, 0.14894116, -0.0073400065, -0.10978486, -0.03702143, -0.0006919216, -0.07941167, 0.034252595, 0.039646484, 0.044777695, -0.0013818158, 0.042575747, -0.12340588, 0.08311333, -0.08779913, -0.009763559, 0.12011066, 0.09790488, 0.008787183, 0.05705427, -0.06493132, 0.062348157, 0.022759479, 0.0040752604, 0.07129187, -0.026933827, -0.068912044, -0.010074357, 0.025960084, -0.07070802, 0.0027975175, -0.060456406, -0.03134974, 0.079802155, -0.079646274, 0.10102168, -0.061007157, 0.08351457, 0.010813762, 0.10033074, -0.03998215, 0.0842782, -0.110049464, -0.16832148, -0.0044765254, -0.09583368, 0.035351284, -0.105090484, -0.15632549, -0.1910146, -0.023969756, 0.060324356, 0.005808934, 0.008202228, 0.12764412, 0.096089244, -0.07605451, -0.018946704, 0.032751102, -0.014912565, -0.065252915, -0.09192167, -0.060602304, -0.014081085, -0.08049386, 0.047075525, -0.07013009, 0.03176345, -0.065192826, 0.1193076, -0.07885888, -0.021608159, -0.042948768, 0.05175908, 0.11059698, -0.0313881, 0.0064036334, -0.06979909, -0.07090065, 0.042636994, 0.08743632, -0.00784759, 0.015972584, 0.0056464714, -0.06772709, 0.007976248, 0.04395901, -0.009182597, 0.07986424, -0.0031022711, -0.13377215, 0.03983689, -0.042310964, 0.012051135, -0.0021097437, 0.0729987, -0.064371966, 0.10393982, -0.003267393, 0.12959687, 0.03528997, 0.054328896, 0.15692121, 0.04941217, 0.00026938508, -0.061991032, -0.21037352, -0.17730889, 0.1770258, -0.008410308, 0.07529912, -0.218474, 0.012697062, -0.16628116, 0.052586757, 0.0044503477, -0.091911085, -0.06860425, 0.17648828, 0.06747773, -0.1846099, -0.118826084, 0.18487081, 0.09486418, 0.08045574, -0.0040066587, 0.016393987, -0.044610925, 0.027770758, -0.09703165, 0.050537225, 0.39761826, -0.044805024, 0.16271627, 0.21780486, 0.13175628, 0.17525472, 0.0847857, -0.21396865, -0.12843241, 0.14063975, -0.18491212, 0.33290157, -0.34422028, 0.0056600943, -0.34804547, -0.16944295, 0.03862804, -0.08590684, -0.050351817, 0.28357032, 0.1649563, -0.3336844, -0.3247014, 0.31965306, 0.12826984, 0.24117121, 0.08996114, 0.19456671, 0.021907452, -0.051749527, -0.0029390934, 0.036630455, 0.03163541, -0.013826392, 0.07686637, 0.010249969, 0.15012969, 0.056936465, -0.015152528, -0.17506804, -0.11250278, 0.13233005, 0.056543656, -0.031461585, -0.09723574, 0.046303384, 0.08875275, 0.10782118, -0.022290029, 0.0038383347, -0.07417048, 0.06942442, 0.046666548, -0.17280604, -0.115673885, -0.044286985, 0.05732465, 0.102086656, 0.08726025, 0.16835709, -0.08175587, 0.0322114, -0.2050423, 0.0818087, 0.18893503, -0.020747216, 0.103449486, 0.13052855, 0.20674035, 0.15605247, 0.049619842, -0.107291676, -0.094557, 0.161995, -0.15187728, 0.31777793, -0.19896518, -0.12582545, -0.37961534, 0.072882675, -0.051049013, 0.060646832, -0.046177562, 0.09495944, 0.20161794, -0.30539978, -0.14975713, 0.2506789, 0.07007689, 0.21538687, 0.097108655, 0.12969485, -0.09792858, -0.036771692, 0.06317994, 0.038169976, 0.29810044, 0.042236257, 0.15199722, 0.24075168, 0.1565712, 0.16341448, -0.050374676, -0.07459958, 0.02898202, 0.076935835, -0.12903842, 0.14830123, -0.3093157, -0.13558373, -0.26321536, -0.023069642, -0.00936161, 0.02472068, 0.06407998, 0.15619268, 0.13753918, -0.2509975, -0.19271368, 0.1924939, 0.14373627, 0.07323903, 0.1406161, 0.10701716, -0.07302485, -0.09818042, -0.02287633, -0.068767644, 0.2279619, -0.01922043, -0.08927977, 0.15694739, 0.09152768, 0.089378305, 0.060900755, -0.1540694, -0.06155861, 0.11485416, -0.005668335, 0.29586563, -0.07328095, -0.12243918, -0.32834056, -0.14282517, -0.06817413, -0.012143977, 0.060513183, 0.061321363, 0.09549146, -0.19218409, -0.09573458, 0.22260554, 0.13458249, 0.12006263, 0.08945959, -0.026274474, 0.04599253, -0.012709407, 0.09348505, 0.005013465, 0.21538767, -0.05479391, -0.041087892, 0.0028783497, -0.0130003635, 0.028035672, -0.08789791, -0.057266362, -0.04628097, 0.10654137, -0.0346701, 0.30469787, -0.08961998, -0.10010495, -0.20271978, -0.081709735, -0.03979239, -0.023849249, 0.05147999, 0.07146745, 0.19017348, -0.18037732, -0.102025926, 0.12442761, 0.059900425, 0.16518591, 0.029373506, -0.037743386, -0.09936077, 0.06962311, 0.027349634, 0.10579375, 0.08514463, 0.08877757, -0.15899669, 0.07586944, 0.09070652, 0.12243457, 0.007935413, -0.19557676, -0.15290779, 0.022306934, -0.17287192, 0.1785635, -0.12980133, -0.01858521, -0.0787179, 0.0007029062, -0.05037319, -0.07194018, 0.043312013, 0.10039179, 0.14812806, -0.09562234, -0.2573385, 0.09477853, 0.14153737, 0.23205833, 0.105445646, 0.08691742, 0.059989337, 0.023857387, -0.05151679, -0.046144325, -0.11181004, -0.026763018, 0.11137392, -0.08793603, 0.011343576, -0.087292574, 0.037871093, 0.01702242, -0.0335895, -0.078950204, -0.06426391, 0.0073684407, 0.042342987, -0.007275658, 0.09497654, 0.08406263, -0.07727289, -0.101884834, 0.05997997, 0.046406817, -0.024651086, -0.004304254, 0.044887032, -0.033112463, 0.053301834, -0.15314654, -0.039749853, -0.05281378, -0.07228671, 0.019588098, 0.067523755, 0.028105646, 0.1792218, 0.026415974, -0.053626426, 0.094328076, 0.10522613, 0.05333197, -0.027186723, -0.1221639, -0.08347742, 0.034152538, 0.015951052, 0.18846191, -0.15772209, -0.1234803, -0.14999716, -0.03678175, -0.045373097, -0.052482635, 0.059357386, 0.11980816, 0.020685885, -0.15757215, -0.11173602, 0.15923586, 0.0456257, 0.104714766, 0.00802536, -0.057877112, 0.045714267, 0.026708601, 0.061521027, 0.0017863947, -0.11141611, 0.056081194, -0.0017805035, -0.09483233, 0.036718618, -0.10826993, -0.052440457, 0.0421049, -0.010813359, 0.013782237, 0.07705342, -0.13082695, -0.02463579, -0.0190576, 0.108088754, 0.021697614, -0.059433438, -0.020299824, 0.011962459, 0.00782515, -0.08067532, -0.009109268, 0.14224876, -0.1360601, 0.06670867, -0.08179934, -0.025933577, -0.11227983, -0.049874563, 0.06367526, -0.03279932, 0.065586336, 0.13025042, 0.05443246, -0.1469268, 0.1716889, 0.073777705, 0.15384538, 0.05625534, -0.24319568, -0.11619707, 0.11177147, -0.17625044, 0.34748477, -0.10643465, -0.18444389, -0.21604204, -0.19900572, -0.0015452569, -0.0870535, -0.08946475, 0.2730852, 0.23384285, -0.20831008, -0.15274449, 0.16106057, 0.1635406, 0.1631346, 0.18876614, 0.18706398, -0.09929359, 0.04494797, -0.023995228, -0.0010749614, 0.1074414, -0.07761144, -0.12315899, -0.059986874, -0.028522834, -0.04980408, -0.095388524, -0.050950218, -0.002964088, 0.108644426, 0.03364002, 0.16065957, -0.0930341, -0.06536349, -0.23344815, 0.049871046, -0.10200862, 0.04113103, 0.06138466, 0.08884105, 0.03922286, -0.10143366, 0.0023892822, -0.0013691691, 0.14614636, -0.003914746, 0.001838028, 0.012385216, -0.048984613, -0.09387286, 0.11512338, 0.03275016, 0.0073679513, 0.0301578, 0.08895166, -0.05102363, -0.09151122, -0.088516586, 0.05175481, 0.121426225, 0.00087170926, -0.02806297, 0.072060525, -0.16591367, 0.030627014, 0.05135919, 0.061006214, 0.02079085, -0.050702427, 0.005616404, -0.013107993, -0.054661058, -0.09822674, 0.03181602, 0.14726418, -0.09724326, -0.038740776, -0.010230771, -0.06895748, 0.0012350267, -0.07024989, -0.022596428, -0.040411174, 0.16635504, 0.36252788, -0.0058267205, -0.027365375, 0.14025609, 0.13681693, 0.18273933, 0.013576709, -0.26941267, -0.17280999, 0.17171097, -0.28465655, 0.1780659, -0.2152941, -0.17120068, -0.34893727, -0.03865934, -0.024732132, -0.04589203, -0.043614015, 0.22854933, 0.2172566, -0.26635554, -0.22861424, 0.2516761, 0.13300432, 0.13445187, 0.057742115, 0.112624615, 0.015738789, -0.0128455255, 0.056045126, -0.04444296, 0.03475384, 0.06601569, 0.13518651, -0.12458284, -0.10191598, -0.08606609, 0.0273979, 0.020990307, -0.038023558, 0.009484626, -0.068481445, -0.1683786, 0.007805886, 0.1480964, 0.07078312, 0.07248123, -0.0506772, 0.02578595, 0.04728154, 0.013745962, -0.022605862, 0.023350943, 0.046332017, -0.018469373, 0.032274712, -0.049819592, 0.007951944, 0.01564047, -0.09234567, -0.09950477, -0.039714824, 0.10852599, 0.18955384, -0.009019735, 0.09935761, 0.2617462, 0.22564203, 0.18654478, 0.004337549, -0.294293, -0.16660838, 0.14798689, -0.20857316, 0.21499875, -0.461028, 0.018883504, -0.21603425, 0.1101965, -0.06052708, 0.0615072, -0.09491388, 0.16701809, 0.29515466, -0.35752904, -0.33983743, 0.27946597, 0.3624692, 0.3394711, 0.22246715, 0.16683973, -0.09652359, 0.0028436335, -0.06067067, 0.16706643, 0.3779286, -0.025313135, -0.030508323, 0.36517927, 0.21592166, 0.1774827, -0.041476864, -0.18205583, -0.08920693, 0.22564921, -0.3226885, 0.35693628, -0.3147435, -0.12864017, -0.3774303, -0.17769317, 0.015972663, 0.05670056, -0.09427547, 0.38733327, 0.29093724, -0.2944027, -0.30623168, 0.43655926, 0.2615458, 0.35583618, 0.357129, 0.19616014, 0.01520752, -0.00085171586, 0.012179111, 0.05979678, 0.013685395, -0.08086859, 0.045476478, 0.18240237, 0.22522861, 0.16849525, -0.01692193, -0.081998244, -0.11438692, 0.063685216, -0.09218459, 0.009759913, -0.18592526, -0.09539738, -0.12033653, 0.038422726, -0.014701506, -0.042516798, -0.052144583, 0.21410501, 0.109650485, -0.14850771, -0.14868298, -0.002260681, 0.18158445, 0.16525593, 0.11123994, 0.1761011, 0.037631486, -0.082060926, -0.3962029, 0.033003844, 0.31578967, -4.422697e-06, 0.04116143, 0.20506138, 0.061854467, 0.08791758, -0.0422491, -0.17905955, -0.16203421, 0.13092661, -0.20835167, 0.5172337, -0.33547273, -0.013972587, -0.3113742, -0.030836677, -0.0042780903, 0.0384962, -0.08947388, 0.17453893, 0.27569962, -0.36871883, -0.22733553, 0.26225406, 0.3191439, 0.3370602, 0.17753887, 0.120353736, 0.050754864, -0.012020642, 0.025937295, 0.011196409, 0.35913014, -0.016169962, 0.011777253, 0.32667398, 0.09053319, 0.19173972, 0.040076364, -0.1595143, -0.066156425, 0.30008954, -0.24327263, 0.44998685, -0.28622925, -0.036364008, -0.31771564, -0.019619172, -0.086054355, -0.043484095, 0.03623548, 0.26216757, 0.29469573, -0.2635269, -0.37084547, 0.40059853, 0.32075736, 0.23742771, 0.26369166, 0.14411174, 0.034407668, -0.07541767, 0.026415708, -0.08650195, 0.04296668, 0.059120238, -0.18639904, -0.017499125, 0.027115667, 0.0380845, -0.06524374, 0.034602586, -0.19039801, -0.0032390503, -0.007247769, 0.16242734, -0.073225506, 0.027481621, -0.182195, -0.11768185, -0.018039182, -0.077055246, -0.061991908, 0.06953022, -0.006793159, -0.1086181, -0.07733887, 0.14357619, 0.080720074, 0.050546423, -0.07813269, -0.050126534, -0.007864173, -0.09459988, 0.15468077, -0.09421995, 0.102749, -0.090359755, -0.18829961, 0.06771984, -0.027994173, -0.059856135, -0.005612026, 0.0057479735, -0.17200172, 0.09322688, -0.08426324, 0.08059369, -0.031232122, -0.02034026, -0.19497837, -0.039751824, -0.0042585307, -0.031662975, -0.050671298, 0.10397171, 0.06345577, -0.032441277, -0.08638018, -0.026312623, 0.02664313, 0.15466468, 0.009619658, -0.06292866, -0.087480746, -0.03949485, 0.034204092, -0.025174614, -0.004198111, 0.05600653, -0.11729604, 0.05405737, -0.015754366, -0.009286201, -0.034900587, -0.039794203, -0.0786459, 0.10208486, 0.01521537, 0.043470465, -0.016345643, -0.021539852, 0.025635425, -0.009181833, -0.036295548, 0.079479374, -0.08853946, 0.11071047, -0.04328601, 0.04842975, -0.018144391, -0.060926083, -0.101595744, -0.023719164, 0.046391148, 0.021465866, -0.017544016, -0.07395575, -0.074134216, 0.0037648166, -0.039685037, -0.030513577, 0.17632864, -0.023275245, -0.059474606, 0.010728141, -0.041997932, 0.06128005, 0.09207332, -0.08186898, -0.071112044, 0.027659154, 0.10105603, 0.043354724, 0.10969361, 0.009466197, 0.033290964, -0.007080295, 0.008733292, 0.077000596, -0.037502576, 0.0989323, 0.0907197, -0.023207476, 0.07474738, -0.104624085, -0.068019524, 0.08237516, -0.04734918, -0.02580345, -0.028461877, -0.13023539, 0.089643076, -0.09883023, -0.13493772, 0.014084067, 0.0231979, -0.03898036, -0.048699982, 0.046005756, -0.10285592, 0.010297486, 0.0068832473, 0.12748045, 0.03384869, -0.07624826, -0.16026966, -0.091771714, -0.023024913, 0.074805535, -0.06345341, -0.028923966, 0.066780746, 0.0041883364, -0.022089448, -0.05366054, 0.023196677, -0.004162853, 0.0148308985, -0.059118208, 0.043802336, 0.03830715, 0.11465909, 0.00543917, -0.085886896, -0.013123513, 0.063452706, -0.040256843, 0.04227038, -0.09433023, -0.015651233, 0.022076486, -0.036255036, -0.09160328, 0.00420466, -0.15083174, 0.04922119, 0.05029094, 0.05202618, 0.015294872, 0.0034145466, -0.0940784, -0.049840894, -0.03072699, 0.05354688, 0.15073009, 0.10640093, -0.09205835, 0.019401174, -0.019683465, -0.054753646, -0.13852501, 0.021907134, -0.07165163, 0.07249633, 0.06983075, -0.03917008, -0.061533898, -0.1709013, 0.058912605, -0.028959617, -0.04175972, 0.04000496, -0.076828055, -0.060847677, 0.061135, -0.024301363, -0.025624227, 0.1237746, -0.033688094, 0.031040782, -0.16279931, -0.054116637, -0.018925307, -0.0876885, 0.13193543, 0.12909327, 0.03016155, -0.030684954, -0.15445624, -0.15475425, 0.15940258, -0.035393752, -0.16984788, 0.067849755, 0.07496744, -0.031294692, -0.15309933, 0.08757001, -0.09244331, -0.17649004, 0.064243235, 0.08409262, -0.059716564, -0.047736816, 0.03230811, 0.06484522, -0.03072089, 0.037706994, 0.030491222, -0.0009756147, -0.067920715, -0.07439365, -0.08574651, 0.058682296, 0.054031756, -0.05396892, 0.01030395, 0.10495504, -0.12644686, -0.0949364, 0.026925078, 0.047371816, 0.1340883, -0.075687535, 0.046854142, -0.08522196, -0.015802884, 0.16994768, -0.038367704, 0.08085834, -0.047966227, 0.052186396, -0.0771432, 0.05169783, -0.088157125, -0.061478674, 0.07727879, -0.03698914, 0.028351607, -0.017019076, -0.11966066, -0.044708665, 0.021884672, 0.015572409, 0.06149057, -0.0023391626, 0.013742872, -0.01705219, 0.040005025, 0.012266133, 0.01954698, -0.05872708, -0.09145205, 0.08427378, -0.13714845, 0.033460077, -0.050664242, -0.021797415, -0.024066756, -0.0022353104, 0.029092316, 0.345173, 0.0051391446, -0.16618083, 0.26397827, 0.21844283, 0.23204517, 0.027989155, -0.3095939, -0.08702637, 0.19418922, -0.23773408, 0.38699403, -0.26213416, -0.10013657, -0.41088492, 0.08020907, -0.066046655, -0.03889471, -0.068238035, 0.30356207, 0.24594058, -0.2752794, -0.31895873, 0.28219, 0.29489672, 0.29907492, 0.2745041, 0.24443164, 0.013325953, -0.08532173, 0.08569829, 0.028624356, -0.044369906, 0.04908521, 0.15827115, 0.018638898, -0.010848879, -0.087641306, 0.03254505, 0.078481995, 0.030281413, -0.09524404, -0.031001568, -0.09203625, 0.1488967, 0.09952842, 0.006840766, 0.018753642, 0.034459043, -0.031403285, -0.035133768, -0.0010089863, -0.06329245, 0.11124307, 0.06279912, -0.075317554, -0.049902197, -0.07950785, -0.008466107, -0.10202197, 0.012099284, 0.069691114, 0.014395023, 0.014202375, -0.03142205, -0.08772152, 0.05717662, 0.11681373, 0.15409653, 0.011655531, -0.016696692, 0.009983645, -0.06950763, -0.014502901, -0.058727063, 0.04081783, -0.111952625, 0.039823286, 0.034066483, 0.1266853, -0.068002306, 0.0590406, 0.037047885, -0.01579235, 0.05478866, -0.017793246, -0.13640358, -0.024400378, -0.017749043, 0.074611545, 0.017810179, 0.009202693, 0.05445721, -0.111790285, 0.1691993, 0.0191444, 0.16472664, -0.0759178, -0.15221699, 0.023783594, 0.10261508, 0.07238929, 0.076948784, -0.103630885, 0.0010185144, 0.026126336, -0.05904315, 0.1824173, -0.1055012, -0.027530618, -0.1953902, -0.104659714, -0.017203318, 0.062079784, -0.016042663, 0.05292877, 0.0608086, -0.17285141, -0.031127006, -0.011106784, 0.12147219, 0.16052347, 0.18983744, 0.025865234, -0.07939914, 0.0057357303, 0.16714725, 0.15553187, 0.19868796, 0.040414765, -0.08432283, 0.3413064, 0.36343265, 0.2048626, -0.06586825, -0.4167995, 0.0021724305, 0.34850037, -0.28927478, 0.2980238, -0.4227664, -0.015676323, -0.27670094, 0.08983832, -0.026597746, 0.052001163, -0.04027047, 0.3584761, 0.34609053, -0.31443754, -0.4601392, 0.20524412, 0.21595727, 0.21379907, 0.3044852, 0.15190516, -0.046993688, -0.029035391, -0.41179866, -0.115615435, -0.0046812417, -0.022040596, -0.027027877, 0.107319355, 0.01199535, 0.07993862, -0.07258603, -0.11859177, -0.097780995, 0.121045604, -0.12108749, 0.1979112, -0.045363564, -0.0672454, -0.06254756, -0.08797434, -0.07083998, -0.09600562, 0.059689645, 0.12769422, 0.12929659, -0.11128424, -0.096894756, 0.04412902, 0.026811523, 0.076820925, 0.121642776, -0.035481848, -0.07879029, -0.097876556, 0.14026406, -0.045226894, 0.23544326, -0.021161947, -0.046926662, 0.019745471, 0.12891747, 0.10827508, 0.023036767, -0.17127278, -0.13341063, 0.07733645, -0.055979352, 0.30147758, -0.17650886, 0.061827146, -0.21353388, -0.043813422, -0.0006077831, -0.0072836424, -0.07282878, 0.22394069, 0.07123502, -0.15956998, -0.082836576, 0.14569454, 0.12418498, 0.15605088, 0.17720655, 0.0005287362, 0.04967828, 0.020912156, 0.028329387, -0.0899142, -0.052272685, 0.020612588, -0.17095913, 0.0063236393, -0.0690353, -0.055867437, 0.04549427, 0.05002594, -0.1501761, -0.06742931, 0.013932173, 0.033045687, 0.021853695, -0.1083172, -0.03241252, -0.12782085, -0.06746, 0.031239443, 0.019344227, 0.07768492, -0.0028442151, 0.033760186, -0.03178575, -0.10073956, -0.01441667, 0.13110977, -0.082048215, 0.011228548, -0.08079911, -0.05182042, 0.14607573, -0.16926798, -0.019426614, 0.010719287, -0.05436073, -0.047194738, 0.0036609801, 0.064615, 0.048269268, 0.06384558, -0.10791571, -0.009228753, -0.030656572, -0.012837591, -0.010838622, -0.016559588, -0.08125403, -0.007866955, -0.023471564, -0.09694746, -0.009666307, -0.010850268, 0.08790356, -0.09956833, -0.06914066, -0.10412863, -0.021022122, 0.014901418, -0.08082417, -0.035088964, -0.01544361, 0.06252251, 0.13593353, -0.037504558, -0.04007834, 0.04219352, -0.18138745, -0.059068892, 0.121662274, 0.10244867, 0.05373998, -0.030561896, -0.041909922, 0.065365225, -0.07353703, -0.040323872, -0.072667934, 0.060475457, 0.06787421, 0.07399476, 0.055881932, -0.00466497, 0.050096333, -0.021543339, -0.016918821, -0.10948658, -0.0091774445, -0.04363357, -0.039642114, 0.0035156272, -0.022782523, 0.021987196, 0.033012453, -0.022539303, -0.10106671, 0.03084171, -0.043640207, -0.060894575, 0.17689346, 0.03689754, 0.01403231, 0.039390367, 0.022876598, 0.0768975, 0.008351287, -0.06623502, -0.010837648, -0.042871095, 0.06884601, 0.019644776, 0.053586025, 0.095750965, -0.082098156, 0.009293628, 0.082785144, 0.034603428, -0.04700669, 0.027162878, 0.031404488, -0.0031052108, 0.046853043, -0.061130602, 0.009026926, 0.045807797, 0.07402331, -0.11030537, -0.05261482, -0.0785306, 0.0515683, -0.07730051, -0.13323972, -0.07577769, 0.076465584, -0.040900253, 0.059274174, -0.026499147, -0.0619288, 0.048010815, 0.067470856, 0.035319854, -0.116690174, 0.026020534, -0.15818274, -0.03499728, -0.08001899, -0.003746584, -0.019779386, 0.1083297, -0.039095555, 0.04404759, 0.049164735, 0.037022274, -0.038144458, -0.03412941, -0.08081389, -0.030562341, 0.057448685, -0.014220857, -0.010133521, -0.010969303, -0.050468333, -0.10085522, 0.15157071, -0.08952209, 0.033575438, -0.06027328, -0.03771787, 0.12655003, 0.09914598, -0.012774096, -0.06520341, -0.10175586, 0.080321275, 0.0098225335, 0.079680674, 0.050206836, -0.07322669, 0.07297157, -0.044860326, 0.04164195, -0.08324206, -0.020157328, 0.010088747, -0.03902813, -0.08462602, -0.017849568, 0.048160136, -0.09918741, -0.06541532, 0.047241718, 0.0883534, 0.06643848, 0.00230627, -0.060778555, -0.10432848, -0.024804682, 0.010958554, 0.12089514, 0.076721996, -0.17117573, -0.048156265, 0.124277405, 0.0025020973, 0.013854158, -0.1581855, -0.13764861, -0.07613291, -0.13982269, 0.07833564, -0.050387494, 0.0029241217, 0.114949286, 0.06876461, -0.086992815, -0.19274537, -0.012082779, -0.18472017, 0.11716749, -0.21601485, -0.05007604, -0.046732977, -0.032474827, -0.0861255, 0.010898838, -0.059585463, -0.033577673, -0.048462514, -0.018058985, 0.07485953, -0.012044439, 0.005780256, 0.06576753, -0.050036747, -0.043837734, -0.0138342725, 0.04853638, -0.08303162, 0.077140234, -0.16829187, -0.045647904, -0.0041089784, 0.0424813, 0.03214501, -0.047403265, 0.07938819, 0.0058997325, 0.06808756, -0.027346862, -0.08197648, 0.004625292, -0.089810185, -0.07582155, 0.06455113, 0.07636237, 0.12843868, -0.05907918, -0.0829392, -0.003018031, 0.0826952, -0.049253054, -0.048153616, 0.00179378, 0.06557636, 0.031040415, -0.032171365, 0.05654322, 0.06557582, 0.011279868, 0.033935614, 0.0020582546, 0.04409582, 0.023054557, 0.031862404, 0.0389812, 0.05966871, 0.053393707, -0.082325056, 0.09592055, 0.0066430788, -0.030343737, -0.034226876, 0.026491428, 0.0008657529, -0.02048808, 0.04111572, -0.09793825, 0.04432017, 0.016921723, 0.099755876, 0.061228335, -0.11398423, 0.06228504, 0.04542701, 0.0013930565, -0.0174786, -0.056663997, -0.10057968, 0.14221148, -0.11453124, 0.06936174, -0.10207419, -0.06688998, -0.086070985, 0.042894766, -0.010150515, -0.07418163, -0.025576277, 0.17541689, 0.01829499, -0.105493486, -0.06560752, 0.06654353, -0.09186942, 0.06907039, 0.028862013, -0.10448213, 0.07249144, 0.043281104, 0.089125395, 0.05602432, 0.017017175, 0.07277291, 0.023228949, 0.036582343, 0.0901084, 0.0115624685, -0.0437141, -0.08891687, 0.10600055, 0.020050768, -0.028756661, -0.034411583, 0.0112369275, 0.010345518, -0.04437272, -0.0688854, -0.030228985, -0.06913196, -0.088590585, 0.027930439, 0.0014321049, -0.07282227, -0.09743405, 0.009393761, 0.025869371, -0.10527343, 0.014001768, 0.044379134, -0.069378965, 0.032034088, -0.02844524, -0.008415046, 0.013621605, -0.05774978, -0.073031805, -0.048018202, 0.043564998, 0.060096383, -0.0301584, -0.111536905, -0.1444263, -0.047853123, -0.025780678, -0.06066926, -0.017753154, 0.003688586, 0.011745676, 0.0065734633, -0.04867291, -0.0014655571, 0.017340435, 0.02505703, 0.06651058, -0.02074974, -0.0740993, -0.006121655, 0.011402158, -0.0039886744, 0.0123750195, -0.05336014, 0.0073017306, 0.024112381, 0.057195425, -0.049229838, 0.07119183, -0.0818277, -0.16869937, 0.05232608, 0.066638775, -0.05118748, 0.024576783, -0.022103185, -0.0826215, 0.06371727, 0.06308723, 0.13901749, 0.05064008, -0.03414666, -0.15848036, -0.08092802, 0.011318453, -0.08106328, -0.08940055, 0.0014159596, 0.098745, -0.02198064, -0.019276105, 0.06688408, -0.029564047, -0.03923045, -0.014549938, 0.023775432, -0.07476027, -0.082403354, 0.07063507, 0.15100862, -0.04312761, 0.0019770411, -0.07438891, 0.13550514, 0.18702492, 0.16253026, 0.0070579574, -0.054393448, -0.09682056, 0.010992378, -0.10175158, 0.026292412, -0.04907785, 0.07428281, 0.01940146, 0.18247353, -0.0072771753, -0.025526898, 0.043290604, 0.004981155, 0.043285716, -0.18800023, -0.0816571, 0.10503339, 0.046272293, 0.05811463, 0.007995328, 0.12701176, 0.03522141, 0.014965214, -0.19290097, -0.048159413, -0.065150894, 0.02433353, -0.047646854, -0.045353565, 0.006065587, -0.06912387, -0.0852279, -0.00612871, -0.045238998, 0.038292952, -0.03884046, -0.053791657, 0.016409231, 0.0100920815, 0.026574723, 0.058680624, 0.054249436, -0.09452102, -0.050520375, -0.08018868, 0.0045440975, -0.053867567, -0.019225128, -0.09345259, -0.0648514, 0.02020471, -0.08176832, -0.13006227, 0.072955385, -0.06673967, 0.1501705, -0.008271257, -0.016701326, 0.042624597, -0.09436533, -0.003735328, 0.06734804, 0.022614803, -0.052602787, 0.06901042, 0.029192744, -0.01897678, -0.009792144, 0.11493971, 0.076474704, -0.09200071, -0.020184947, -0.08457788, 0.001489602, -0.08202751, 0.025075719, -0.037976455, 0.056058884, 0.050671063, -0.065242924, 0.006288865, -0.027059196, 0.0502954, -0.042627376, -0.033596754, 0.0014860053, -0.08531998, 0.22692169, -0.07979107, 0.03296162, 0.04649487, -0.111219205, -0.113064736, 0.049980473, 0.056445796, -0.049660787, -0.021429075, -0.05080844, 0.046723094, 0.09480728, 0.08366578, 0.0024868306, 0.014666044, -0.13249244, -0.10137083, 0.04142043, 0.06355335, -0.08915218, -0.003974256, 0.006005755, -0.02330356, 0.09012392, 0.04779436, 0.016647974, 0.03758912, -0.14624229, -0.078249015, -0.053351883, 0.060280822, 0.026686998, -0.09362206, -0.07843694, -0.05983145, -0.18519782, -0.07654742, -0.0036236332, 0.008501247, -0.012187525, -0.032920703, -0.030672964, 0.05897328, 0.10065763, -0.038778186, 0.0041116956, -0.060069133, -0.15541969, -0.072021015, -0.09402947, -0.08940708, 0.0019593101, 0.09817361, 0.028384186, -0.06397663, 0.04680098, -0.035925623, -0.013933241, -0.0026594365, -0.02967503, -0.07927327, -0.0026620862, -0.035809588, -0.022318987, -0.14237879, -0.06279715, 0.019699976, -0.14041258, 0.03564699, -0.06494706, 0.013538713, -0.05258037, 0.0030151457, -0.036067452, -0.032105014, 0.054658283, -0.027202278, -0.06518764, 0.0913623, 0.122921795, 0.049043436, 0.053845588, -0.041559488, -0.025533862, 0.05226804, 0.07061677, -0.0834444, -0.12961, -0.06738069, -0.12204662, 0.04712118, -0.13048017, -0.07913794, -0.0731389, 0.03621102, 0.044025257, 0.085997514, 0.05536829, 0.038927507, 0.09514338, -0.031050896, 0.10030787, 0.032000877, -0.02330981, 0.054082833, -0.04172833, -0.005608748, -0.0041943393, -0.048104074, 0.022035655, 0.0029121751, 0.050320994, -0.019175397, -0.028667819, -0.017196752, -0.024106275, 0.10331286, -0.05960039, 0.0043138023, -0.046154693, 0.020655183, 0.02747247, -0.031166842, 0.034410927, -0.008634283, -0.00046991202, 0.05737972, 0.08017195, -0.11563332, 0.020139161, -0.088826366, -0.093889095, -0.039637666, -0.10481279, -0.03993662, -0.05113798, 0.040847898, -0.056134958, 0.058406707, -0.04647124, -0.07012595, 0.032853622, -0.03565567, -0.09812821, -0.021549862, 0.029436825, 0.014152532, 0.01372077, 0.08250282, 0.019252487, -0.09552939, 0.06651952, -0.14281249, -0.16826048, 0.014749462, -0.011537886, -0.019881357, 0.012744375, 0.05119932, 0.07546968, 0.030198622, 0.008491696, -0.09747662, 0.12710522, 0.0068671745, 0.008973941, 0.063916326, 0.07127668, -0.028825738, 0.09716527, -0.020676186, -0.01558702, -0.06510793, -0.017428814, -0.058158644, 0.07307042, 0.06872009, 0.046014752, -0.027933467, 0.0609241, -0.05261453, 0.11584447, -0.057359803, -0.09997724, -0.038767613, 0.04170864, 0.0047709816, -0.017435815, 0.0008215358, 0.031430017, -0.11026102, 0.054732006, 0.03580839, 0.030532127, -0.01904433, -0.041018907, 0.07236279, -0.014612279, -0.01838922, 0.05554351, -0.034325745, -0.07741798, -0.009387804, 0.012251129, -0.115497455, -0.102573246, 0.049617294, -0.024201956, 0.03394669, -0.063083306, -0.09330366, 0.030127104, 0.037063092, -0.020005286, -0.15903746, -0.10451892, 0.0036120224, -0.057132725, -0.027770495, -0.21371417, -0.12094021, 0.016720029, -0.003949334, -0.094440795, -0.1225677, 0.026083622, -0.08900004, -0.11103947, -0.048032112, 0.06563334, 0.033079352, 0.031728018, -0.076983064, 0.109881185, -0.043661326, 0.055953488, 0.07913743, -0.026044056, 0.005326683, -0.10748436, 0.04029085, -0.04734416, -0.0290757, -0.08481561, -0.058258105, -0.07514251, -0.08066843, 0.0067955987, 0.044300772, -0.008492648, 0.10348274, -0.099016435, -0.11567503, -0.07827396, 0.0669224, 0.16364774, 0.04552112, -0.0509839, 0.06948555, 0.07768434, 0.013728651, -0.05285228, -0.04539068, 0.04354537, -0.02993483, -0.023702556, 0.024510626, -0.029107252, -0.056609727, 0.075962596, 0.09912596, -0.031029621, 0.06124488, -0.05574945, 0.057630014, -0.08842323, 0.08075242, 0.052075014, -0.011705171, 0.021821417, 0.0010182075, 0.11227833, 0.02715141, 0.093381606, 0.1176747, 0.016766848, -0.045682445, -0.05516545, -0.17730577, 0.052949473, -0.062995814, -0.12967102, -0.023328809, -0.0576768, -0.045926053, -0.0020792559, -0.004714201, -0.025553374, 0.049164467, 0.06825859, -0.09803215, 0.074910626, -0.08316194, -0.06711214, -0.08499669, -0.045242347, -0.06563975, 0.042314462, 0.05558358, 0.03147848, -0.04652209, 0.055264257, -0.055299897, -0.14879629, 0.002831637, -0.10181222, -0.045091897, 0.012802872, -0.047459897, 0.22574142, 0.13841864, 0.017687121, -0.028724663, 0.0853254, 0.092686415, 0.04244951, 0.027530888, 0.06438471, 0.10423724, 0.034992646, -0.044080075, -0.03533933, 0.07389737, 0.005925609, 0.022449387, 0.074426375, 0.010544307, -0.025489325, 0.006426387, 0.0033194218, 0.04238765, 0.03730017, -0.06993301, -0.030163178, -0.029007953, -0.012612731, -0.026190868, -0.06064766, -0.068754144, -0.072861224, -0.06147553, 0.010328078, 0.04938578, -0.009904859, 0.011302594, -0.10197281, -0.025943616, -0.045216065, 0.0017574187, -0.052248716, 0.04405359, -0.05408696, 0.06687252, 0.03220317, -0.031634293, -0.08522451, 0.13073711, -0.044165168, -0.0061461832, 0.0077661457, -0.081064336, -0.039967492, -0.08360458, 0.05976846, 0.0021268544, -0.03158849, 0.07574228, 0.07222777, 0.034457546, -0.003751023, 0.15024151, -0.086940065, 0.023809353, 0.019762654, -0.15045866, 0.1043193, -0.037227347, 0.042667672, -0.20057833, -0.05411369, -0.11917595, 0.011494567, 0.20954864,